digraph Tree {
node [shape=box] ;
0 [label="('change', 'e') <= 0.5\nentropy = 0.99\nsamples = 1027\nvalue = [454, 573]"] ;
1 [label="('#climatechange', 'e') <= 0.5\nentropy = 0.996\nsamples = 555\nvalue = [299, 256]"] ;
0 -> 1 [labeldistance=2.5, labelangle=45, headlabel="True"] ;
2 [label="('rt', 't') <= 0.5\nentropy = 0.971\nsamples = 449\nvalue = [269, 180]"] ;
1 -> 2 ;
3 [label="('don', 'n') <= 0.5\nentropy = 0.851\nsamples = 130\nvalue = [94, 36]"] ;
2 -> 3 ;
4 [label="('means', 's') <= 0.5\nentropy = 0.808\nsamples = 125\nvalue = [94, 31]"] ;
3 -> 4 ;
5 [label="('kind', 'd') <= 0.5\nentropy = 0.766\nsamples = 121\nvalue = [94, 27]"] ;
4 -> 5 ;
6 [label="('co', 'o') <= 0.5\nentropy = 0.729\nsamples = 118\nvalue = [94, 24]"] ;
5 -> 6 ;
7 [label="('we', 'e') <= 0.5\nentropy = 0.569\nsamples = 82\nvalue = [71, 11]"] ;
6 -> 7 ;
8 [label="('the', 'e') <= 0.5\nentropy = 0.341\nsamples = 63\nvalue = [59, 4]"] ;
7 -> 8 ;
9 [label="entropy = 0.0\nsamples = 45\nvalue = [45, 0]"] ;
8 -> 9 ;
10 [label="('would', 'd') <= 0.5\nentropy = 0.764\nsamples = 18\nvalue = [14, 4]"] ;
8 -> 10 ;
11 [label="('the', 'e') <= 1.5\nentropy = 0.544\nsamples = 16\nvalue = [14, 2]"] ;
10 -> 11 ;
12 [label="('you', 'u') <= 0.5\nentropy = 0.764\nsamples = 9\nvalue = [7, 2]"] ;
11 -> 12 ;
13 [label="('like', 'e') <= 0.5\nentropy = 0.863\nsamples = 7\nvalue = [5, 2]"] ;
12 -> 13 ;
14 [label="('time', 'e') <= 0.5\nentropy = 0.722\nsamples = 5\nvalue = [4, 1]"] ;
13 -> 14 ;
15 [label="entropy = 0.0\nsamples = 3\nvalue = [3, 0]"] ;
14 -> 15 ;
16 [label="entropy = 1.0\nsamples = 2\nvalue = [1, 1]"] ;
14 -> 16 ;
17 [label="entropy = 1.0\nsamples = 2\nvalue = [1, 1]"] ;
13 -> 17 ;
18 [label="entropy = 0.0\nsamples = 2\nvalue = [2, 0]"] ;
12 -> 18 ;
19 [label="entropy = 0.0\nsamples = 7\nvalue = [7, 0]"] ;
11 -> 19 ;
20 [label="entropy = 0.0\nsamples = 2\nvalue = [0, 2]"] ;
10 -> 20 ;
21 [label="('the', 'e') <= 1.5\nentropy = 0.949\nsamples = 19\nvalue = [12, 7]"] ;
7 -> 21 ;
22 [label="('have', 'e') <= 0.5\nentropy = 1.0\nsamples = 14\nvalue = [7, 7]"] ;
21 -> 22 ;
23 [label="('i', 'i') <= 0.5\nentropy = 0.946\nsamples = 11\nvalue = [7, 4]"] ;
22 -> 23 ;
24 [label="('do', 'o') <= 0.5\nentropy = 0.991\nsamples = 9\nvalue = [5, 4]"] ;
23 -> 24 ;
25 [label="('to', 'o') <= 0.5\nentropy = 0.863\nsamples = 7\nvalue = [5, 2]"] ;
24 -> 25 ;
26 [label="('in', 'n') <= 0.5\nentropy = 0.971\nsamples = 5\nvalue = [3, 2]"] ;
25 -> 26 ;
27 [label="entropy = 0.918\nsamples = 3\nvalue = [1, 2]"] ;
26 -> 27 ;
28 [label="entropy = 0.0\nsamples = 2\nvalue = [2, 0]"] ;
26 -> 28 ;
29 [label="entropy = 0.0\nsamples = 2\nvalue = [2, 0]"] ;
25 -> 29 ;
30 [label="entropy = 0.0\nsamples = 2\nvalue = [0, 2]"] ;
24 -> 30 ;
31 [label="entropy = 0.0\nsamples = 2\nvalue = [2, 0]"] ;
23 -> 31 ;
32 [label="entropy = 0.0\nsamples = 3\nvalue = [0, 3]"] ;
22 -> 32 ;
33 [label="entropy = 0.0\nsamples = 5\nvalue = [5, 0]"] ;
21 -> 33 ;
34 [label="('we', 'e') <= 0.5\nentropy = 0.944\nsamples = 36\nvalue = [23, 13]"] ;
6 -> 34 ;
35 [label="('the', 'e') <= 2.5\nentropy = 0.981\nsamples = 31\nvalue = [18, 13]"] ;
34 -> 35 ;
36 [label="('too', 'o') <= 0.5\nentropy = 0.958\nsamples = 29\nvalue = [18, 11]"] ;
35 -> 36 ;
37 [label="('gas', 's') <= 0.5\nentropy = 0.918\nsamples = 27\nvalue = [18, 9]"] ;
36 -> 37 ;
38 [label="('that', 't') <= 0.5\nentropy = 0.855\nsamples = 25\nvalue = [18, 7]"] ;
37 -> 38 ;
39 [label="('of', 'f') <= 0.5\nentropy = 0.964\nsamples = 18\nvalue = [11, 7]"] ;
38 -> 39 ;
40 [label="('is', 's') <= 0.5\nentropy = 0.837\nsamples = 15\nvalue = [11, 4]"] ;
39 -> 40 ;
41 [label="('via', 'a') <= 0.5\nentropy = 0.918\nsamples = 12\nvalue = [8, 4]"] ;
40 -> 41 ;
42 [label="entropy = 0.991\nsamples = 9\nvalue = [5, 4]"] ;
41 -> 42 ;
43 [label="entropy = 0.0\nsamples = 3\nvalue = [3, 0]"] ;
41 -> 43 ;
44 [label="entropy = 0.0\nsamples = 3\nvalue = [3, 0]"] ;
40 -> 44 ;
45 [label="entropy = 0.0\nsamples = 3\nvalue = [0, 3]"] ;
39 -> 45 ;
46 [label="entropy = 0.0\nsamples = 7\nvalue = [7, 0]"] ;
38 -> 46 ;
47 [label="entropy = 0.0\nsamples = 2\nvalue = [0, 2]"] ;
37 -> 47 ;
48 [label="entropy = 0.0\nsamples = 2\nvalue = [0, 2]"] ;
36 -> 48 ;
49 [label="entropy = 0.0\nsamples = 2\nvalue = [0, 2]"] ;
35 -> 49 ;
50 [label="entropy = 0.0\nsamples = 5\nvalue = [5, 0]"] ;
34 -> 50 ;
51 [label="entropy = 0.0\nsamples = 3\nvalue = [0, 3]"] ;
5 -> 51 ;
52 [label="entropy = 0.0\nsamples = 4\nvalue = [0, 4]"] ;
4 -> 52 ;
53 [label="entropy = 0.0\nsamples = 5\nvalue = [0, 5]"] ;
3 -> 53 ;
54 [label="('un', 'n') <= 0.5\nentropy = 0.993\nsamples = 319\nvalue = [175, 144]"] ;
2 -> 54 ;
55 [label="('but', 't') <= 0.5\nentropy = 0.988\nsamples = 309\nvalue = [174, 135]"] ;
54 -> 55 ;
56 [label="('global', 'l') <= 0.5\nentropy = 0.995\nsamples = 290\nvalue = [157, 133]"] ;
55 -> 56 ;
57 [label="('massive', 'e') <= 0.5\nentropy = 0.988\nsamples = 271\nvalue = [153, 118]"] ;
56 -> 57 ;
58 [label="('plant', 't') <= 0.5\nentropy = 0.985\nsamples = 267\nvalue = [153, 114]"] ;
57 -> 58 ;
59 [label="('are', 'e') <= 1.5\nentropy = 0.981\nsamples = 263\nvalue = [153, 110]"] ;
58 -> 59 ;
60 [label="('article', 'e') <= 0.5\nentropy = 0.976\nsamples = 259\nvalue = [153, 106]"] ;
59 -> 60 ;
61 [label="('plan', 'n') <= 0.5\nentropy = 0.971\nsamples = 255\nvalue = [153, 102]"] ;
60 -> 61 ;
62 [label="('#globalwarming', 'g') <= 0.5\nentropy = 0.965\nsamples = 251\nvalue = [153, 98]"] ;
61 -> 62 ;
63 [label="('by', 'y') <= 0.5\nentropy = 0.956\nsamples = 244\nvalue = [152, 92]"] ;
62 -> 63 ;
64 [label="('people', 'e') <= 0.5\nentropy = 0.934\nsamples = 220\nvalue = [143, 77]"] ;
63 -> 64 ;
65 [label="('to', 'o') <= 1.5\nentropy = 0.947\nsamples = 211\nvalue = [134, 77]"] ;
64 -> 65 ;
66 [label="entropy = 0.918\nsamples = 189\nvalue = [126, 63]"] ;
65 -> 66 ;
67 [label="entropy = 0.946\nsamples = 22\nvalue = [8, 14]"] ;
65 -> 67 ;
68 [label="entropy = 0.0\nsamples = 9\nvalue = [9, 0]"] ;
64 -> 68 ;
69 [label="('or', 'r') <= 0.5\nentropy = 0.954\nsamples = 24\nvalue = [9, 15]"] ;
63 -> 69 ;
70 [label="('s', 's') <= 1.5\nentropy = 0.863\nsamples = 21\nvalue = [6, 15]"] ;
69 -> 70 ;
71 [label="entropy = 0.742\nsamples = 19\nvalue = [4, 15]"] ;
70 -> 71 ;
72 [label="entropy = 0.0\nsamples = 2\nvalue = [2, 0]"] ;
70 -> 72 ;
73 [label="entropy = 0.0\nsamples = 3\nvalue = [3, 0]"] ;
69 -> 73 ;
74 [label="('that', 't') <= 0.5\nentropy = 0.592\nsamples = 7\nvalue = [1, 6]"] ;
62 -> 74 ;
75 [label="entropy = 0.0\nsamples = 5\nvalue = [0, 5]"] ;
74 -> 75 ;
76 [label="entropy = 1.0\nsamples = 2\nvalue = [1, 1]"] ;
74 -> 76 ;
77 [label="entropy = 0.0\nsamples = 4\nvalue = [0, 4]"] ;
61 -> 77 ;
78 [label="entropy = 0.0\nsamples = 4\nvalue = [0, 4]"] ;
60 -> 78 ;
79 [label="entropy = 0.0\nsamples = 4\nvalue = [0, 4]"] ;
59 -> 79 ;
80 [label="entropy = 0.0\nsamples = 4\nvalue = [0, 4]"] ;
58 -> 80 ;
81 [label="entropy = 0.0\nsamples = 4\nvalue = [0, 4]"] ;
57 -> 81 ;
82 [label="('i', 'i') <= 0.5\nentropy = 0.742\nsamples = 19\nvalue = [4, 15]"] ;
56 -> 82 ;
83 [label="('the', 'e') <= 1.5\nentropy = 0.523\nsamples = 17\nvalue = [2, 15]"] ;
82 -> 83 ;
84 [label="entropy = 0.0\nsamples = 13\nvalue = [0, 13]"] ;
83 -> 84 ;
85 [label="('a', 'a') <= 0.5\nentropy = 1.0\nsamples = 4\nvalue = [2, 2]"] ;
83 -> 85 ;
86 [label="entropy = 0.0\nsamples = 2\nvalue = [2, 0]"] ;
85 -> 86 ;
87 [label="entropy = 0.0\nsamples = 2\nvalue = [0, 2]"] ;
85 -> 87 ;
88 [label="entropy = 0.0\nsamples = 2\nvalue = [2, 0]"] ;
82 -> 88 ;
89 [label="('may', 'y') <= 0.5\nentropy = 0.485\nsamples = 19\nvalue = [17, 2]"] ;
55 -> 89 ;
90 [label="entropy = 0.0\nsamples = 16\nvalue = [16, 0]"] ;
89 -> 90 ;
91 [label="entropy = 0.918\nsamples = 3\nvalue = [1, 2]"] ;
89 -> 91 ;
92 [label="('s', 's') <= 0.5\nentropy = 0.469\nsamples = 10\nvalue = [1, 9]"] ;
54 -> 92 ;
93 [label="entropy = 0.0\nsamples = 8\nvalue = [0, 8]"] ;
92 -> 93 ;
94 [label="entropy = 1.0\nsamples = 2\nvalue = [1, 1]"] ;
92 -> 94 ;
95 [label="('take', 'e') <= 0.5\nentropy = 0.86\nsamples = 106\nvalue = [30, 76]"] ;
1 -> 95 ;
96 [label="('will', 'l') <= 0.5\nentropy = 0.83\nsamples = 103\nvalue = [27, 76]"] ;
95 -> 96 ;
97 [label="('changing', 'g') <= 0.5\nentropy = 0.869\nsamples = 93\nvalue = [27, 66]"] ;
96 -> 97 ;
98 [label="('case', 'e') <= 0.5\nentropy = 0.848\nsamples = 91\nvalue = [25, 66]"] ;
97 -> 98 ;
99 [label="('#climatechangeisreal', 'l') <= 0.5\nentropy = 0.824\nsamples = 89\nvalue = [23, 66]"] ;
98 -> 99 ;
100 [label="('taking', 'g') <= 0.5\nentropy = 0.797\nsamples = 87\nvalue = [21, 66]"] ;
99 -> 100 ;
101 [label="('country', 'y') <= 0.5\nentropy = 0.767\nsamples = 85\nvalue = [19, 66]"] ;
100 -> 101 ;
102 [label="('going', 'g') <= 0.5\nentropy = 0.731\nsamples = 83\nvalue = [17, 66]"] ;
101 -> 102 ;
103 [label="('#wentw', 'w') <= 0.5\nentropy = 0.691\nsamples = 81\nvalue = [15, 66]"] ;
102 -> 103 ;
104 [label="('this', 's') <= 0.5\nentropy = 0.645\nsamples = 79\nvalue = [13, 66]"] ;
103 -> 104 ;
105 [label="('#auspol', 'l') <= 0.5\nentropy = 0.71\nsamples = 67\nvalue = [13, 54]"] ;
104 -> 105 ;
106 [label="('by', 'y') <= 0.5\nentropy = 0.631\nsamples = 63\nvalue = [10, 53]"] ;
105 -> 106 ;
107 [label="('the', 'e') <= 2.5\nentropy = 0.567\nsamples = 60\nvalue = [8, 52]"] ;
106 -> 107 ;
108 [label="entropy = 0.485\nsamples = 57\nvalue = [6, 51]"] ;
107 -> 108 ;
109 [label="entropy = 0.918\nsamples = 3\nvalue = [2, 1]"] ;
107 -> 109 ;
110 [label="entropy = 0.918\nsamples = 3\nvalue = [2, 1]"] ;
106 -> 110 ;
111 [label="('rt', 't') <= 0.5\nentropy = 0.811\nsamples = 4\nvalue = [3, 1]"] ;
105 -> 111 ;
112 [label="entropy = 0.0\nsamples = 2\nvalue = [2, 0]"] ;
111 -> 112 ;
113 [label="entropy = 1.0\nsamples = 2\nvalue = [1, 1]"] ;
111 -> 113 ;
114 [label="entropy = 0.0\nsamples = 12\nvalue = [0, 12]"] ;
104 -> 114 ;
115 [label="entropy = 0.0\nsamples = 2\nvalue = [2, 0]"] ;
103 -> 115 ;
116 [label="entropy = 0.0\nsamples = 2\nvalue = [2, 0]"] ;
102 -> 116 ;
117 [label="entropy = 0.0\nsamples = 2\nvalue = [2, 0]"] ;
101 -> 117 ;
118 [label="entropy = 0.0\nsamples = 2\nvalue = [2, 0]"] ;
100 -> 118 ;
119 [label="entropy = 0.0\nsamples = 2\nvalue = [2, 0]"] ;
99 -> 119 ;
120 [label="entropy = 0.0\nsamples = 2\nvalue = [2, 0]"] ;
98 -> 120 ;
121 [label="entropy = 0.0\nsamples = 2\nvalue = [2, 0]"] ;
97 -> 121 ;
122 [label="entropy = 0.0\nsamples = 10\nvalue = [0, 10]"] ;
96 -> 122 ;
123 [label="entropy = 0.0\nsamples = 3\nvalue = [3, 0]"] ;
95 -> 123 ;
124 [label="('rt', 't') <= 0.5\nentropy = 0.913\nsamples = 472\nvalue = [155, 317]"] ;
0 -> 124 [labeldistance=2.5, labelangle=-45, headlabel="False"] ;
125 [label="('good', 'd') <= 0.5\nentropy = 0.974\nsamples = 252\nvalue = [102, 150]"] ;
124 -> 125 ;
126 [label="('into', 'o') <= 0.5\nentropy = 0.965\nsamples = 246\nvalue = [96, 150]"] ;
125 -> 126 ;
127 [label="('been', 'n') <= 0.5\nentropy = 0.976\nsamples = 235\nvalue = [96, 139]"] ;
126 -> 127 ;
128 [label="('that', 't') <= 0.5\nentropy = 0.964\nsamples = 224\nvalue = [87, 137]"] ;
127 -> 128 ;
129 [label="('hoax', 'x') <= 0.5\nentropy = 0.989\nsamples = 173\nvalue = [76, 97]"] ;
128 -> 129 ;
130 [label="('their', 'r') <= 0.5\nentropy = 0.981\nsamples = 167\nvalue = [70, 97]"] ;
129 -> 130 ;
131 [label="('#climatechange', 'e') <= 0.5\nentropy = 0.989\nsamples = 160\nvalue = [70, 90]"] ;
130 -> 131 ;
132 [label="('will', 'l') <= 0.5\nentropy = 0.983\nsamples = 156\nvalue = [66, 90]"] ;
131 -> 132 ;
133 [label="('please', 'e') <= 0.5\nentropy = 0.995\nsamples = 138\nvalue = [63, 75]"] ;
132 -> 133 ;
134 [label="('your', 'r') <= 0.5\nentropy = 0.99\nsamples = 134\nvalue = [59, 75]"] ;
133 -> 134 ;
135 [label="('my', 'y') <= 0.5\nentropy = 0.995\nsamples = 129\nvalue = [59, 70]"] ;
134 -> 135 ;
136 [label="('get', 't') <= 0.5\nentropy = 0.984\nsamples = 120\nvalue = [51, 69]"] ;
135 -> 136 ;
137 [label="('because', 'e') <= 0.5\nentropy = 0.991\nsamples = 115\nvalue = [51, 64]"] ;
136 -> 137 ;
138 [label="entropy = 0.985\nsamples = 112\nvalue = [48, 64]"] ;
137 -> 138 ;
139 [label="entropy = 0.0\nsamples = 3\nvalue = [3, 0]"] ;
137 -> 139 ;
140 [label="entropy = 0.0\nsamples = 5\nvalue = [0, 5]"] ;
136 -> 140 ;
141 [label="('from', 'm') <= 0.5\nentropy = 0.503\nsamples = 9\nvalue = [8, 1]"] ;
135 -> 141 ;
142 [label="entropy = 0.0\nsamples = 7\nvalue = [7, 0]"] ;
141 -> 142 ;
143 [label="entropy = 1.0\nsamples = 2\nvalue = [1, 1]"] ;
141 -> 143 ;
144 [label="entropy = 0.0\nsamples = 5\nvalue = [0, 5]"] ;
134 -> 144 ;
145 [label="entropy = 0.0\nsamples = 4\nvalue = [4, 0]"] ;
133 -> 145 ;
146 [label="('now', 'w') <= 0.5\nentropy = 0.65\nsamples = 18\nvalue = [3, 15]"] ;
132 -> 146 ;
147 [label="('no', 'o') <= 0.5\nentropy = 0.337\nsamples = 16\nvalue = [1, 15]"] ;
146 -> 147 ;
148 [label="entropy = 0.0\nsamples = 14\nvalue = [0, 14]"] ;
147 -> 148 ;
149 [label="entropy = 1.0\nsamples = 2\nvalue = [1, 1]"] ;
147 -> 149 ;
150 [label="entropy = 0.0\nsamples = 2\nvalue = [2, 0]"] ;
146 -> 150 ;
151 [label="entropy = 0.0\nsamples = 4\nvalue = [4, 0]"] ;
131 -> 151 ;
152 [label="entropy = 0.0\nsamples = 7\nvalue = [0, 7]"] ;
130 -> 152 ;
153 [label="entropy = 0.0\nsamples = 6\nvalue = [6, 0]"] ;
129 -> 153 ;
154 [label="('the', 'e') <= 0.5\nentropy = 0.752\nsamples = 51\nvalue = [11, 40]"] ;
128 -> 154 ;
155 [label="entropy = 0.0\nsamples = 13\nvalue = [0, 13]"] ;
154 -> 155 ;
156 [label="('we', 'e') <= 0.5\nentropy = 0.868\nsamples = 38\nvalue = [11, 27]"] ;
154 -> 156 ;
157 [label="('its', 's') <= 0.5\nentropy = 0.938\nsamples = 31\nvalue = [11, 20]"] ;
156 -> 157 ;
158 [label="('up', 'p') <= 0.5\nentropy = 0.894\nsamples = 29\nvalue = [9, 20]"] ;
157 -> 158 ;
159 [label="('of', 'f') <= 0.5\nentropy = 0.826\nsamples = 27\nvalue = [7, 20]"] ;
158 -> 159 ;
160 [label="('a', 'a') <= 0.5\nentropy = 0.949\nsamples = 19\nvalue = [7, 12]"] ;
159 -> 160 ;
161 [label="('you', 'u') <= 0.5\nentropy = 0.65\nsamples = 12\nvalue = [2, 10]"] ;
160 -> 161 ;
162 [label="entropy = 0.0\nsamples = 8\nvalue = [0, 8]"] ;
161 -> 162 ;
163 [label="('find', 'd') <= 0.5\nentropy = 1.0\nsamples = 4\nvalue = [2, 2]"] ;
161 -> 163 ;
164 [label="entropy = 0.0\nsamples = 2\nvalue = [2, 0]"] ;
163 -> 164 ;
165 [label="entropy = 0.0\nsamples = 2\nvalue = [0, 2]"] ;
163 -> 165 ;
166 [label="('is', 's') <= 0.5\nentropy = 0.863\nsamples = 7\nvalue = [5, 2]"] ;
160 -> 166 ;
167 [label="entropy = 0.0\nsamples = 4\nvalue = [4, 0]"] ;
166 -> 167 ;
168 [label="entropy = 0.918\nsamples = 3\nvalue = [1, 2]"] ;
166 -> 168 ;
169 [label="entropy = 0.0\nsamples = 8\nvalue = [0, 8]"] ;
159 -> 169 ;
170 [label="entropy = 0.0\nsamples = 2\nvalue = [2, 0]"] ;
158 -> 170 ;
171 [label="entropy = 0.0\nsamples = 2\nvalue = [2, 0]"] ;
157 -> 171 ;
172 [label="entropy = 0.0\nsamples = 7\nvalue = [0, 7]"] ;
156 -> 172 ;
173 [label="('a', 'a') <= 1.5\nentropy = 0.684\nsamples = 11\nvalue = [9, 2]"] ;
127 -> 173 ;
174 [label="entropy = 0.0\nsamples = 9\nvalue = [9, 0]"] ;
173 -> 174 ;
175 [label="entropy = 0.0\nsamples = 2\nvalue = [0, 2]"] ;
173 -> 175 ;
176 [label="entropy = 0.0\nsamples = 11\nvalue = [0, 11]"] ;
126 -> 176 ;
177 [label="entropy = 0.0\nsamples = 6\nvalue = [6, 0]"] ;
125 -> 177 ;
178 [label="('report', 't') <= 0.5\nentropy = 0.797\nsamples = 220\nvalue = [53, 167]"] ;
124 -> 178 ;
179 [label="('on', 'n') <= 1.5\nentropy = 0.839\nsamples = 194\nvalue = [52, 142]"] ;
178 -> 179 ;
180 [label="('some', 'e') <= 0.5\nentropy = 0.821\nsamples = 191\nvalue = [49, 142]"] ;
179 -> 180 ;
181 [label="('has', 's') <= 0.5\nentropy = 0.803\nsamples = 188\nvalue = [46, 142]"] ;
180 -> 181 ;
182 [label="('debate', 'e') <= 0.5\nentropy = 0.76\nsamples = 173\nvalue = [38, 135]"] ;
181 -> 182 ;
183 [label="('agenda', 'a') <= 0.5\nentropy = 0.742\nsamples = 171\nvalue = [36, 135]"] ;
182 -> 183 ;
184 [label="('weather', 'r') <= 0.5\nentropy = 0.724\nsamples = 169\nvalue = [34, 135]"] ;
183 -> 184 ;
185 [label="('it', 't') <= 0.5\nentropy = 0.705\nsamples = 167\nvalue = [32, 135]"] ;
184 -> 185 ;
186 [label="('f', 'f') <= 0.5\nentropy = 0.76\nsamples = 141\nvalue = [31, 110]"] ;
185 -> 186 ;
187 [label="('will', 'l') <= 0.5\nentropy = 0.728\nsamples = 138\nvalue = [28, 110]"] ;
186 -> 187 ;
188 [label="('did', 'd') <= 0.5\nentropy = 0.665\nsamples = 127\nvalue = [22, 105]"] ;
187 -> 188 ;
189 [label="('down', 'n') <= 0.5\nentropy = 0.634\nsamples = 125\nvalue = [20, 105]"] ;
188 -> 189 ;
190 [label="('s', 's') <= 0.5\nentropy = 0.601\nsamples = 123\nvalue = [18, 105]"] ;
189 -> 190 ;
191 [label="entropy = 0.654\nsamples = 107\nvalue = [18, 89]"] ;
190 -> 191 ;
192 [label="entropy = 0.0\nsamples = 16\nvalue = [0, 16]"] ;
190 -> 192 ;
193 [label="entropy = 0.0\nsamples = 2\nvalue = [2, 0]"] ;
189 -> 193 ;
194 [label="entropy = 0.0\nsamples = 2\nvalue = [2, 0]"] ;
188 -> 194 ;
195 [label="('s', 's') <= 0.5\nentropy = 0.994\nsamples = 11\nvalue = [6, 5]"] ;
187 -> 195 ;
196 [label="('the', 'e') <= 0.5\nentropy = 0.991\nsamples = 9\nvalue = [4, 5]"] ;
195 -> 196 ;
197 [label="('that', 't') <= 0.5\nentropy = 0.811\nsamples = 4\nvalue = [1, 3]"] ;
196 -> 197 ;
198 [label="entropy = 0.0\nsamples = 2\nvalue = [0, 2]"] ;
197 -> 198 ;
199 [label="entropy = 1.0\nsamples = 2\nvalue = [1, 1]"] ;
197 -> 199 ;
200 [label="('a', 'a') <= 0.5\nentropy = 0.971\nsamples = 5\nvalue = [3, 2]"] ;
196 -> 200 ;
201 [label="entropy = 0.0\nsamples = 2\nvalue = [2, 0]"] ;
200 -> 201 ;
202 [label="entropy = 0.918\nsamples = 3\nvalue = [1, 2]"] ;
200 -> 202 ;
203 [label="entropy = 0.0\nsamples = 2\nvalue = [2, 0]"] ;
195 -> 203 ;
204 [label="entropy = 0.0\nsamples = 3\nvalue = [3, 0]"] ;
186 -> 204 ;
205 [label="('plan', 'n') <= 0.5\nentropy = 0.235\nsamples = 26\nvalue = [1, 25]"] ;
185 -> 205 ;
206 [label="entropy = 0.0\nsamples = 24\nvalue = [0, 24]"] ;
205 -> 206 ;
207 [label="entropy = 1.0\nsamples = 2\nvalue = [1, 1]"] ;
205 -> 207 ;
208 [label="entropy = 0.0\nsamples = 2\nvalue = [2, 0]"] ;
184 -> 208 ;
209 [label="entropy = 0.0\nsamples = 2\nvalue = [2, 0]"] ;
183 -> 209 ;
210 [label="entropy = 0.0\nsamples = 2\nvalue = [2, 0]"] ;
182 -> 210 ;
211 [label="('s', 's') <= 0.5\nentropy = 0.997\nsamples = 15\nvalue = [8, 7]"] ;
181 -> 211 ;
212 [label="('a', 'a') <= 0.5\nentropy = 0.98\nsamples = 12\nvalue = [5, 7]"] ;
211 -> 212 ;
213 [label="('years', 's') <= 0.5\nentropy = 0.954\nsamples = 8\nvalue = [5, 3]"] ;
212 -> 213 ;
214 [label="('of', 'f') <= 0.5\nentropy = 0.65\nsamples = 6\nvalue = [5, 1]"] ;
213 -> 214 ;
215 [label="entropy = 0.0\nsamples = 4\nvalue = [4, 0]"] ;
214 -> 215 ;
216 [label="entropy = 1.0\nsamples = 2\nvalue = [1, 1]"] ;
214 -> 216 ;
217 [label="entropy = 0.0\nsamples = 2\nvalue = [0, 2]"] ;
213 -> 217 ;
218 [label="entropy = 0.0\nsamples = 4\nvalue = [0, 4]"] ;
212 -> 218 ;
219 [label="entropy = 0.0\nsamples = 3\nvalue = [3, 0]"] ;
211 -> 219 ;
220 [label="entropy = 0.0\nsamples = 3\nvalue = [3, 0]"] ;
180 -> 220 ;
221 [label="entropy = 0.0\nsamples = 3\nvalue = [3, 0]"] ;
179 -> 221 ;
222 [label="('drastic', 'c') <= 0.5\nentropy = 0.235\nsamples = 26\nvalue = [1, 25]"] ;
178 -> 222 ;
223 [label="entropy = 0.0\nsamples = 24\nvalue = [0, 24]"] ;
222 -> 223 ;
224 [label="entropy = 1.0\nsamples = 2\nvalue = [1, 1]"] ;
222 -> 224 ;
}
