digraph Tree {
node [shape=box] ;
0 [label="('climate', 'e') <= 0.5\nentropy = 0.99\nsamples = 1026\nvalue = [453, 573]"] ;
1 [label="('#climatechange', 'e') <= 0.5\nentropy = 0.994\nsamples = 506\nvalue = [276, 230]"] ;
0 -> 1 [labeldistance=2.5, labelangle=45, headlabel="True"] ;
2 [label="('at', 't') <= 0.5\nentropy = 0.963\nsamples = 397\nvalue = [243, 154]"] ;
1 -> 2 ;
3 [label="('in', 'n') <= 0.5\nentropy = 0.947\nsamples = 370\nvalue = [235, 135]"] ;
2 -> 3 ;
4 [label="('they', 'y') <= 0.5\nentropy = 0.896\nsamples = 269\nvalue = [185, 84]"] ;
3 -> 4 ;
5 [label="('would', 'd') <= 0.5\nentropy = 0.92\nsamples = 251\nvalue = [167, 84]"] ;
4 -> 5 ;
6 [label="('energy', 'y') <= 0.5\nentropy = 0.906\nsamples = 246\nvalue = [167, 79]"] ;
5 -> 6 ;
7 [label="('100', '0') <= 0.5\nentropy = 0.893\nsamples = 242\nvalue = [167, 75]"] ;
6 -> 7 ;
8 [label="('to', 'o') <= 0.5\nentropy = 0.873\nsamples = 235\nvalue = [166, 69]"] ;
7 -> 8 ;
9 [label="('this', 's') <= 1.5\nentropy = 0.751\nsamples = 135\nvalue = [106, 29]"] ;
8 -> 9 ;
10 [label="('price', 'e') <= 0.5\nentropy = 0.716\nsamples = 132\nvalue = [106, 26]"] ;
9 -> 10 ;
11 [label="('interesting', 'g') <= 0.5\nentropy = 0.69\nsamples = 130\nvalue = [106, 24]"] ;
10 -> 11 ;
12 [label="('works', 's') <= 0.5\nentropy = 0.662\nsamples = 128\nvalue = [106, 22]"] ;
11 -> 12 ;
13 [label="('does', 's') <= 0.5\nentropy = 0.631\nsamples = 126\nvalue = [106, 20]"] ;
12 -> 13 ;
14 [label="entropy = 0.598\nsamples = 124\nvalue = [106, 18]"] ;
13 -> 14 ;
15 [label="entropy = 0.0\nsamples = 2\nvalue = [0, 2]"] ;
13 -> 15 ;
16 [label="entropy = 0.0\nsamples = 2\nvalue = [0, 2]"] ;
12 -> 16 ;
17 [label="entropy = 0.0\nsamples = 2\nvalue = [0, 2]"] ;
11 -> 17 ;
18 [label="entropy = 0.0\nsamples = 2\nvalue = [0, 2]"] ;
10 -> 18 ;
19 [label="entropy = 0.0\nsamples = 3\nvalue = [0, 3]"] ;
9 -> 19 ;
20 [label="('not', 't') <= 0.5\nentropy = 0.971\nsamples = 100\nvalue = [60, 40]"] ;
8 -> 20 ;
21 [label="('from', 'm') <= 0.5\nentropy = 0.993\nsamples = 89\nvalue = [49, 40]"] ;
20 -> 21 ;
22 [label="('more', 'e') <= 0.5\nentropy = 0.98\nsamples = 84\nvalue = [49, 35]"] ;
21 -> 22 ;
23 [label="('t', 't') <= 0.5\nentropy = 0.991\nsamples = 79\nvalue = [44, 35]"] ;
22 -> 23 ;
24 [label="('global', 'l') <= 0.5\nentropy = 0.925\nsamples = 50\nvalue = [33, 17]"] ;
23 -> 24 ;
25 [label="entropy = 0.859\nsamples = 46\nvalue = [33, 13]"] ;
24 -> 25 ;
26 [label="entropy = 0.0\nsamples = 4\nvalue = [0, 4]"] ;
24 -> 26 ;
27 [label="('that', 't') <= 0.5\nentropy = 0.958\nsamples = 29\nvalue = [11, 18]"] ;
23 -> 27 ;
28 [label="entropy = 0.792\nsamples = 21\nvalue = [5, 16]"] ;
27 -> 28 ;
29 [label="entropy = 0.811\nsamples = 8\nvalue = [6, 2]"] ;
27 -> 29 ;
30 [label="entropy = 0.0\nsamples = 5\nvalue = [5, 0]"] ;
22 -> 30 ;
31 [label="entropy = 0.0\nsamples = 5\nvalue = [0, 5]"] ;
21 -> 31 ;
32 [label="entropy = 0.0\nsamples = 11\nvalue = [11, 0]"] ;
20 -> 32 ;
33 [label="('for', 'r') <= 0.5\nentropy = 0.592\nsamples = 7\nvalue = [1, 6]"] ;
7 -> 33 ;
34 [label="entropy = 0.0\nsamples = 5\nvalue = [0, 5]"] ;
33 -> 34 ;
35 [label="entropy = 1.0\nsamples = 2\nvalue = [1, 1]"] ;
33 -> 35 ;
36 [label="entropy = 0.0\nsamples = 4\nvalue = [0, 4]"] ;
6 -> 36 ;
37 [label="entropy = 0.0\nsamples = 5\nvalue = [0, 5]"] ;
5 -> 37 ;
38 [label="entropy = 0.0\nsamples = 18\nvalue = [18, 0]"] ;
4 -> 38 ;
39 [label="('report', 't') <= 0.5\nentropy = 1.0\nsamples = 101\nvalue = [50, 51]"] ;
3 -> 39 ;
40 [label="('people', 'e') <= 0.5\nentropy = 0.998\nsamples = 95\nvalue = [50, 45]"] ;
39 -> 40 ;
41 [label="('5', '5') <= 0.5\nentropy = 1.0\nsamples = 90\nvalue = [45, 45]"] ;
40 -> 41 ;
42 [label="('#climateaction', 'n') <= 0.5\nentropy = 0.998\nsamples = 86\nvalue = [45, 41]"] ;
41 -> 42 ;
43 [label="('or', 'r') <= 0.5\nentropy = 0.993\nsamples = 82\nvalue = [45, 37]"] ;
42 -> 43 ;
44 [label="('w', 'w') <= 0.5\nentropy = 0.983\nsamples = 78\nvalue = [45, 33]"] ;
43 -> 44 ;
45 [label="('and', 'd') <= 0.5\nentropy = 0.971\nsamples = 75\nvalue = [45, 30]"] ;
44 -> 45 ;
46 [label="('rt', 't') <= 0.5\nentropy = 0.912\nsamples = 55\nvalue = [37, 18]"] ;
45 -> 46 ;
47 [label="('your', 'r') <= 0.5\nentropy = 0.391\nsamples = 13\nvalue = [12, 1]"] ;
46 -> 47 ;
48 [label="entropy = 0.0\nsamples = 11\nvalue = [11, 0]"] ;
47 -> 48 ;
49 [label="entropy = 1.0\nsamples = 2\nvalue = [1, 1]"] ;
47 -> 49 ;
50 [label="('we', 'e') <= 0.5\nentropy = 0.974\nsamples = 42\nvalue = [25, 17]"] ;
46 -> 50 ;
51 [label="('important', 't') <= 0.5\nentropy = 0.918\nsamples = 36\nvalue = [24, 12]"] ;
50 -> 51 ;
52 [label="entropy = 0.874\nsamples = 34\nvalue = [24, 10]"] ;
51 -> 52 ;
53 [label="entropy = 0.0\nsamples = 2\nvalue = [0, 2]"] ;
51 -> 53 ;
54 [label="('the', 'e') <= 0.5\nentropy = 0.65\nsamples = 6\nvalue = [1, 5]"] ;
50 -> 54 ;
55 [label="entropy = 0.918\nsamples = 3\nvalue = [1, 2]"] ;
54 -> 55 ;
56 [label="entropy = 0.0\nsamples = 3\nvalue = [0, 3]"] ;
54 -> 56 ;
57 [label="('have', 'e') <= 0.5\nentropy = 0.971\nsamples = 20\nvalue = [8, 12]"] ;
45 -> 57 ;
58 [label="('he', 'e') <= 0.5\nentropy = 0.874\nsamples = 17\nvalue = [5, 12]"] ;
57 -> 58 ;
59 [label="('the', 'e') <= 0.5\nentropy = 0.722\nsamples = 15\nvalue = [3, 12]"] ;
58 -> 59 ;
60 [label="entropy = 0.918\nsamples = 9\nvalue = [3, 6]"] ;
59 -> 60 ;
61 [label="entropy = 0.0\nsamples = 6\nvalue = [0, 6]"] ;
59 -> 61 ;
62 [label="entropy = 0.0\nsamples = 2\nvalue = [2, 0]"] ;
58 -> 62 ;
63 [label="entropy = 0.0\nsamples = 3\nvalue = [3, 0]"] ;
57 -> 63 ;
64 [label="entropy = 0.0\nsamples = 3\nvalue = [0, 3]"] ;
44 -> 64 ;
65 [label="entropy = 0.0\nsamples = 4\nvalue = [0, 4]"] ;
43 -> 65 ;
66 [label="entropy = 0.0\nsamples = 4\nvalue = [0, 4]"] ;
42 -> 66 ;
67 [label="entropy = 0.0\nsamples = 4\nvalue = [0, 4]"] ;
41 -> 67 ;
68 [label="entropy = 0.0\nsamples = 5\nvalue = [5, 0]"] ;
40 -> 68 ;
69 [label="entropy = 0.0\nsamples = 6\nvalue = [0, 6]"] ;
39 -> 69 ;
70 [label="('the', 'e') <= 0.5\nentropy = 0.877\nsamples = 27\nvalue = [8, 19]"] ;
2 -> 70 ;
71 [label="entropy = 0.0\nsamples = 8\nvalue = [0, 8]"] ;
70 -> 71 ;
72 [label="('you', 'u') <= 0.5\nentropy = 0.982\nsamples = 19\nvalue = [8, 11]"] ;
70 -> 72 ;
73 [label="('no', 'o') <= 0.5\nentropy = 0.837\nsamples = 15\nvalue = [4, 11]"] ;
72 -> 73 ;
74 [label="('co', 'o') <= 0.5\nentropy = 0.619\nsamples = 13\nvalue = [2, 11]"] ;
73 -> 74 ;
75 [label="entropy = 0.0\nsamples = 8\nvalue = [0, 8]"] ;
74 -> 75 ;
76 [label="('i', 'i') <= 0.5\nentropy = 0.971\nsamples = 5\nvalue = [2, 3]"] ;
74 -> 76 ;
77 [label="entropy = 0.0\nsamples = 2\nvalue = [0, 2]"] ;
76 -> 77 ;
78 [label="entropy = 0.918\nsamples = 3\nvalue = [2, 1]"] ;
76 -> 78 ;
79 [label="entropy = 0.0\nsamples = 2\nvalue = [2, 0]"] ;
73 -> 79 ;
80 [label="entropy = 0.0\nsamples = 4\nvalue = [4, 0]"] ;
72 -> 80 ;
81 [label="('to', 'o') <= 0.5\nentropy = 0.885\nsamples = 109\nvalue = [33, 76]"] ;
1 -> 81 ;
82 [label="('no', 'o') <= 0.5\nentropy = 0.971\nsamples = 65\nvalue = [26, 39]"] ;
81 -> 82 ;
83 [label="('this', 's') <= 0.5\nentropy = 0.951\nsamples = 62\nvalue = [23, 39]"] ;
82 -> 83 ;
84 [label="('from', 'm') <= 0.5\nentropy = 0.984\nsamples = 54\nvalue = [23, 31]"] ;
83 -> 84 ;
85 [label="('s', 's') <= 0.5\nentropy = 0.966\nsamples = 51\nvalue = [20, 31]"] ;
84 -> 85 ;
86 [label="('rt', 't') <= 0.5\nentropy = 0.991\nsamples = 45\nvalue = [20, 25]"] ;
85 -> 86 ;
87 [label="('doing', 'g') <= 0.5\nentropy = 0.932\nsamples = 23\nvalue = [15, 8]"] ;
86 -> 87 ;
88 [label="('you', 'u') <= 0.5\nentropy = 0.863\nsamples = 21\nvalue = [15, 6]"] ;
87 -> 88 ;
89 [label="('the', 'e') <= 0.5\nentropy = 0.696\nsamples = 16\nvalue = [13, 3]"] ;
88 -> 89 ;
90 [label="('t', 't') <= 0.5\nentropy = 0.881\nsamples = 10\nvalue = [7, 3]"] ;
89 -> 90 ;
91 [label="entropy = 0.918\nsamples = 3\nvalue = [1, 2]"] ;
90 -> 91 ;
92 [label="('world', 'd') <= 0.5\nentropy = 0.592\nsamples = 7\nvalue = [6, 1]"] ;
90 -> 92 ;
93 [label="entropy = 0.0\nsamples = 5\nvalue = [5, 0]"] ;
92 -> 93 ;
94 [label="entropy = 1.0\nsamples = 2\nvalue = [1, 1]"] ;
92 -> 94 ;
95 [label="entropy = 0.0\nsamples = 6\nvalue = [6, 0]"] ;
89 -> 95 ;
96 [label="('t', 't') <= 1.5\nentropy = 0.971\nsamples = 5\nvalue = [2, 3]"] ;
88 -> 96 ;
97 [label="entropy = 0.918\nsamples = 3\nvalue = [2, 1]"] ;
96 -> 97 ;
98 [label="entropy = 0.0\nsamples = 2\nvalue = [0, 2]"] ;
96 -> 98 ;
99 [label="entropy = 0.0\nsamples = 2\nvalue = [0, 2]"] ;
87 -> 99 ;
100 [label="('and', 'd') <= 0.5\nentropy = 0.773\nsamples = 22\nvalue = [5, 17]"] ;
86 -> 100 ;
101 [label="('a', 'a') <= 0.5\nentropy = 0.523\nsamples = 17\nvalue = [2, 15]"] ;
100 -> 101 ;
102 [label="('t', 't') <= 0.5\nentropy = 0.722\nsamples = 10\nvalue = [2, 8]"] ;
101 -> 102 ;
103 [label="('on', 'n') <= 0.5\nentropy = 0.918\nsamples = 6\nvalue = [2, 4]"] ;
102 -> 103 ;
104 [label="entropy = 1.0\nsamples = 4\nvalue = [2, 2]"] ;
103 -> 104 ;
105 [label="entropy = 0.0\nsamples = 2\nvalue = [0, 2]"] ;
103 -> 105 ;
106 [label="entropy = 0.0\nsamples = 4\nvalue = [0, 4]"] ;
102 -> 106 ;
107 [label="entropy = 0.0\nsamples = 7\nvalue = [0, 7]"] ;
101 -> 107 ;
108 [label="('the', 'e') <= 0.5\nentropy = 0.971\nsamples = 5\nvalue = [3, 2]"] ;
100 -> 108 ;
109 [label="entropy = 0.0\nsamples = 2\nvalue = [0, 2]"] ;
108 -> 109 ;
110 [label="entropy = 0.0\nsamples = 3\nvalue = [3, 0]"] ;
108 -> 110 ;
111 [label="entropy = 0.0\nsamples = 6\nvalue = [0, 6]"] ;
85 -> 111 ;
112 [label="entropy = 0.0\nsamples = 3\nvalue = [3, 0]"] ;
84 -> 112 ;
113 [label="entropy = 0.0\nsamples = 8\nvalue = [0, 8]"] ;
83 -> 113 ;
114 [label="entropy = 0.0\nsamples = 3\nvalue = [3, 0]"] ;
82 -> 114 ;
115 [label="('on', 'n') <= 0.5\nentropy = 0.632\nsamples = 44\nvalue = [7, 37]"] ;
81 -> 115 ;
116 [label="('planet', 't') <= 0.5\nentropy = 0.323\nsamples = 34\nvalue = [2, 32]"] ;
115 -> 116 ;
117 [label="entropy = 0.0\nsamples = 32\nvalue = [0, 32]"] ;
116 -> 117 ;
118 [label="entropy = 0.0\nsamples = 2\nvalue = [2, 0]"] ;
116 -> 118 ;
119 [label="('the', 'e') <= 2.5\nentropy = 1.0\nsamples = 10\nvalue = [5, 5]"] ;
115 -> 119 ;
120 [label="('just', 't') <= 0.5\nentropy = 0.954\nsamples = 8\nvalue = [3, 5]"] ;
119 -> 120 ;
121 [label="('and', 'd') <= 0.5\nentropy = 0.65\nsamples = 6\nvalue = [1, 5]"] ;
120 -> 121 ;
122 [label="entropy = 0.0\nsamples = 4\nvalue = [0, 4]"] ;
121 -> 122 ;
123 [label="entropy = 1.0\nsamples = 2\nvalue = [1, 1]"] ;
121 -> 123 ;
124 [label="entropy = 0.0\nsamples = 2\nvalue = [2, 0]"] ;
120 -> 124 ;
125 [label="entropy = 0.0\nsamples = 2\nvalue = [2, 0]"] ;
119 -> 125 ;
126 [label="('been', 'n') <= 0.5\nentropy = 0.925\nsamples = 520\nvalue = [177, 343]"] ;
0 -> 126 [labeldistance=2.5, labelangle=-45, headlabel="False"] ;
127 [label="('rt', 't') <= 0.5\nentropy = 0.91\nsamples = 504\nvalue = [164, 340]"] ;
126 -> 127 ;
128 [label="('into', 'o') <= 0.5\nentropy = 0.968\nsamples = 261\nvalue = [103, 158]"] ;
127 -> 128 ;
129 [label="('care', 'e') <= 0.5\nentropy = 0.975\nsamples = 253\nvalue = [103, 150]"] ;
128 -> 129 ;
130 [label="('responsible', 'e') <= 0.5\nentropy = 0.981\nsamples = 246\nvalue = [103, 143]"] ;
129 -> 130 ;
131 [label="('that', 't') <= 0.5\nentropy = 0.976\nsamples = 242\nvalue = [99, 143]"] ;
130 -> 131 ;
132 [label="('hoax', 'x') <= 0.5\nentropy = 0.995\nsamples = 186\nvalue = [85, 101]"] ;
131 -> 132 ;
133 [label="('their', 'r') <= 0.5\nentropy = 0.988\nsamples = 179\nvalue = [78, 101]"] ;
132 -> 133 ;
134 [label="('world', 'd') <= 0.5\nentropy = 0.994\nsamples = 172\nvalue = [78, 94]"] ;
133 -> 134 ;
135 [label="('fight', 't') <= 0.5\nentropy = 0.998\nsamples = 163\nvalue = [77, 86]"] ;
134 -> 135 ;
136 [label="('make', 'e') <= 0.5\nentropy = 0.999\nsamples = 159\nvalue = [77, 82]"] ;
135 -> 136 ;
137 [label="('one', 'e') <= 0.5\nentropy = 1.0\nsamples = 151\nvalue = [76, 75]"] ;
136 -> 137 ;
138 [label="('my', 'y') <= 0.5\nentropy = 0.999\nsamples = 146\nvalue = [71, 75]"] ;
137 -> 138 ;
139 [label="entropy = 0.997\nsamples = 139\nvalue = [65, 74]"] ;
138 -> 139 ;
140 [label="entropy = 0.592\nsamples = 7\nvalue = [6, 1]"] ;
138 -> 140 ;
141 [label="entropy = 0.0\nsamples = 5\nvalue = [5, 0]"] ;
137 -> 141 ;
142 [label="('because', 'e') <= 0.5\nentropy = 0.544\nsamples = 8\nvalue = [1, 7]"] ;
136 -> 142 ;
143 [label="entropy = 0.0\nsamples = 6\nvalue = [0, 6]"] ;
142 -> 143 ;
144 [label="entropy = 1.0\nsamples = 2\nvalue = [1, 1]"] ;
142 -> 144 ;
145 [label="entropy = 0.0\nsamples = 4\nvalue = [0, 4]"] ;
135 -> 145 ;
146 [label="('wednesday', 'y') <= 0.5\nentropy = 0.503\nsamples = 9\nvalue = [1, 8]"] ;
134 -> 146 ;
147 [label="entropy = 0.0\nsamples = 7\nvalue = [0, 7]"] ;
146 -> 147 ;
148 [label="entropy = 1.0\nsamples = 2\nvalue = [1, 1]"] ;
146 -> 148 ;
149 [label="entropy = 0.0\nsamples = 7\nvalue = [0, 7]"] ;
133 -> 149 ;
150 [label="entropy = 0.0\nsamples = 7\nvalue = [7, 0]"] ;
132 -> 150 ;
151 [label="('single', 'e') <= 0.5\nentropy = 0.811\nsamples = 56\nvalue = [14, 42]"] ;
131 -> 151 ;
152 [label="('which', 'h') <= 0.5\nentropy = 0.764\nsamples = 54\nvalue = [12, 42]"] ;
151 -> 152 ;
153 [label="('think', 'k') <= 0.5\nentropy = 0.706\nsamples = 52\nvalue = [10, 42]"] ;
152 -> 153 ;
154 [label="('a', 'a') <= 0.5\nentropy = 0.634\nsamples = 50\nvalue = [8, 42]"] ;
153 -> 154 ;
155 [label="('i', 'i') <= 0.5\nentropy = 0.722\nsamples = 40\nvalue = [8, 32]"] ;
154 -> 155 ;
156 [label="('are', 'e') <= 0.5\nentropy = 0.799\nsamples = 33\nvalue = [8, 25]"] ;
155 -> 156 ;
157 [label="('is', 's') <= 0.5\nentropy = 0.677\nsamples = 28\nvalue = [5, 23]"] ;
156 -> 157 ;
158 [label="entropy = 0.31\nsamples = 18\nvalue = [1, 17]"] ;
157 -> 158 ;
159 [label="entropy = 0.971\nsamples = 10\nvalue = [4, 6]"] ;
157 -> 159 ;
160 [label="('and', 'd') <= 0.5\nentropy = 0.971\nsamples = 5\nvalue = [3, 2]"] ;
156 -> 160 ;
161 [label="entropy = 0.0\nsamples = 3\nvalue = [3, 0]"] ;
160 -> 161 ;
162 [label="entropy = 0.0\nsamples = 2\nvalue = [0, 2]"] ;
160 -> 162 ;
163 [label="entropy = 0.0\nsamples = 7\nvalue = [0, 7]"] ;
155 -> 163 ;
164 [label="entropy = 0.0\nsamples = 10\nvalue = [0, 10]"] ;
154 -> 164 ;
165 [label="entropy = 0.0\nsamples = 2\nvalue = [2, 0]"] ;
153 -> 165 ;
166 [label="entropy = 0.0\nsamples = 2\nvalue = [2, 0]"] ;
152 -> 166 ;
167 [label="entropy = 0.0\nsamples = 2\nvalue = [2, 0]"] ;
151 -> 167 ;
168 [label="entropy = 0.0\nsamples = 4\nvalue = [4, 0]"] ;
130 -> 168 ;
169 [label="entropy = 0.0\nsamples = 7\nvalue = [0, 7]"] ;
129 -> 169 ;
170 [label="entropy = 0.0\nsamples = 8\nvalue = [0, 8]"] ;
128 -> 170 ;
171 [label="('@tan123', '3') <= 0.5\nentropy = 0.813\nsamples = 243\nvalue = [61, 182]"] ;
127 -> 171 ;
172 [label="('some', 'e') <= 0.5\nentropy = 0.798\nsamples = 240\nvalue = [58, 182]"] ;
171 -> 172 ;
173 [label="('will', 'l') <= 0.5\nentropy = 0.782\nsamples = 237\nvalue = [55, 182]"] ;
172 -> 173 ;
174 [label="('world', 'd') <= 0.5\nentropy = 0.745\nsamples = 222\nvalue = [47, 175]"] ;
173 -> 174 ;
175 [label="('few', 'w') <= 0.5\nentropy = 0.771\nsamples = 208\nvalue = [47, 161]"] ;
174 -> 175 ;
176 [label="('agenda', 'a') <= 0.5\nentropy = 0.757\nsamples = 206\nvalue = [45, 161]"] ;
175 -> 176 ;
177 [label="('use', 'e') <= 0.5\nentropy = 0.743\nsamples = 204\nvalue = [43, 161]"] ;
176 -> 177 ;
178 [label="('change', 'e') <= 0.5\nentropy = 0.728\nsamples = 202\nvalue = [41, 161]"] ;
177 -> 178 ;
179 [label="('to', 'o') <= 0.5\nentropy = 0.963\nsamples = 31\nvalue = [12, 19]"] ;
178 -> 179 ;
180 [label="('report', 't') <= 0.5\nentropy = 0.998\nsamples = 21\nvalue = [11, 10]"] ;
179 -> 180 ;
181 [label="('a', 'a') <= 0.5\nentropy = 0.964\nsamples = 18\nvalue = [11, 7]"] ;
180 -> 181 ;
182 [label="entropy = 0.65\nsamples = 12\nvalue = [10, 2]"] ;
181 -> 182 ;
183 [label="entropy = 0.65\nsamples = 6\nvalue = [1, 5]"] ;
181 -> 183 ;
184 [label="entropy = 0.0\nsamples = 3\nvalue = [0, 3]"] ;
180 -> 184 ;
185 [label="('ve', 'e') <= 0.5\nentropy = 0.469\nsamples = 10\nvalue = [1, 9]"] ;
179 -> 185 ;
186 [label="entropy = 0.0\nsamples = 8\nvalue = [0, 8]"] ;
185 -> 186 ;
187 [label="entropy = 1.0\nsamples = 2\nvalue = [1, 1]"] ;
185 -> 187 ;
188 [label="('told', 'd') <= 0.5\nentropy = 0.657\nsamples = 171\nvalue = [29, 142]"] ;
178 -> 188 ;
189 [label="('save', 'e') <= 0.5\nentropy = 0.634\nsamples = 169\nvalue = [27, 142]"] ;
188 -> 189 ;
190 [label="('live', 'e') <= 0.5\nentropy = 0.609\nsamples = 167\nvalue = [25, 142]"] ;
189 -> 190 ;
191 [label="entropy = 0.583\nsamples = 165\nvalue = [23, 142]"] ;
190 -> 191 ;
192 [label="entropy = 0.0\nsamples = 2\nvalue = [2, 0]"] ;
190 -> 192 ;
193 [label="entropy = 0.0\nsamples = 2\nvalue = [2, 0]"] ;
189 -> 193 ;
194 [label="entropy = 0.0\nsamples = 2\nvalue = [2, 0]"] ;
188 -> 194 ;
195 [label="entropy = 0.0\nsamples = 2\nvalue = [2, 0]"] ;
177 -> 195 ;
196 [label="entropy = 0.0\nsamples = 2\nvalue = [2, 0]"] ;
176 -> 196 ;
197 [label="entropy = 0.0\nsamples = 2\nvalue = [2, 0]"] ;
175 -> 197 ;
198 [label="entropy = 0.0\nsamples = 14\nvalue = [0, 14]"] ;
174 -> 198 ;
199 [label="('if', 'f') <= 0.5\nentropy = 0.997\nsamples = 15\nvalue = [8, 7]"] ;
173 -> 199 ;
200 [label="('can', 'n') <= 0.5\nentropy = 0.961\nsamples = 13\nvalue = [8, 5]"] ;
199 -> 200 ;
201 [label="('and', 'd') <= 0.5\nentropy = 0.845\nsamples = 11\nvalue = [8, 3]"] ;
200 -> 201 ;
202 [label="('we', 'e') <= 0.5\nentropy = 0.544\nsamples = 8\nvalue = [7, 1]"] ;
201 -> 202 ;
203 [label="entropy = 0.0\nsamples = 6\nvalue = [6, 0]"] ;
202 -> 203 ;
204 [label="entropy = 1.0\nsamples = 2\nvalue = [1, 1]"] ;
202 -> 204 ;
205 [label="entropy = 0.918\nsamples = 3\nvalue = [1, 2]"] ;
201 -> 205 ;
206 [label="entropy = 0.0\nsamples = 2\nvalue = [0, 2]"] ;
200 -> 206 ;
207 [label="entropy = 0.0\nsamples = 2\nvalue = [0, 2]"] ;
199 -> 207 ;
208 [label="entropy = 0.0\nsamples = 3\nvalue = [3, 0]"] ;
172 -> 208 ;
209 [label="entropy = 0.0\nsamples = 3\nvalue = [3, 0]"] ;
171 -> 209 ;
210 [label="('it', 't') <= 0.5\nentropy = 0.696\nsamples = 16\nvalue = [13, 3]"] ;
126 -> 210 ;
211 [label="('on', 'n') <= 0.5\nentropy = 0.954\nsamples = 8\nvalue = [5, 3]"] ;
210 -> 211 ;
212 [label="('of', 'f') <= 0.5\nentropy = 0.65\nsamples = 6\nvalue = [5, 1]"] ;
211 -> 212 ;
213 [label="entropy = 0.0\nsamples = 3\nvalue = [3, 0]"] ;
212 -> 213 ;
214 [label="entropy = 0.918\nsamples = 3\nvalue = [2, 1]"] ;
212 -> 214 ;
215 [label="entropy = 0.0\nsamples = 2\nvalue = [0, 2]"] ;
211 -> 215 ;
216 [label="entropy = 0.0\nsamples = 8\nvalue = [8, 0]"] ;
210 -> 216 ;
}
