digraph Tree {
node [shape=box] ;
0 [label="('climate', 'e') <= 0.5\nentropy = 0.99\nsamples = 1025\nvalue = [453, 572]"] ;
1 [label="('#climatechange', 'e') <= 0.5\nentropy = 0.996\nsamples = 506\nvalue = [271, 235]"] ;
0 -> 1 [labeldistance=2.5, labelangle=45, headlabel="True"] ;
2 [label="('levels', 's') <= 0.5\nentropy = 0.963\nsamples = 395\nvalue = [242, 153]"] ;
1 -> 2 ;
3 [label="('limiting', 'g') <= 0.5\nentropy = 0.957\nsamples = 389\nvalue = [242, 147]"] ;
2 -> 3 ;
4 [label="('in', 'n') <= 0.5\nentropy = 0.951\nsamples = 384\nvalue = [242, 142]"] ;
3 -> 4 ;
5 [label="('start', 't') <= 0.5\nentropy = 0.913\nsamples = 293\nvalue = [197, 96]"] ;
4 -> 5 ;
6 [label="('at', 't') <= 0.5\nentropy = 0.9\nsamples = 288\nvalue = [197, 91]"] ;
5 -> 6 ;
7 [label="('100', '0') <= 0.5\nentropy = 0.868\nsamples = 266\nvalue = [189, 77]"] ;
6 -> 7 ;
8 [label="('national', 'l') <= 0.5\nentropy = 0.847\nsamples = 259\nvalue = [188, 71]"] ;
7 -> 8 ;
9 [label="('agriculture', 'e') <= 0.5\nentropy = 0.835\nsamples = 256\nvalue = [188, 68]"] ;
8 -> 9 ;
10 [label="('earth', 'h') <= 0.5\nentropy = 0.822\nsamples = 253\nvalue = [188, 65]"] ;
9 -> 10 ;
11 [label="('#climatebreakdown', 'n') <= 0.5\nentropy = 0.808\nsamples = 250\nvalue = [188, 62]"] ;
10 -> 11 ;
12 [label="('humanity', 'y') <= 0.5\nentropy = 0.793\nsamples = 247\nvalue = [188, 59]"] ;
11 -> 12 ;
13 [label="('by', 'y') <= 0.5\nentropy = 0.777\nsamples = 244\nvalue = [188, 56]"] ;
12 -> 13 ;
14 [label="('does', 's') <= 0.5\nentropy = 0.744\nsamples = 232\nvalue = [183, 49]"] ;
13 -> 14 ;
15 [label="entropy = 0.731\nsamples = 230\nvalue = [183, 47]"] ;
14 -> 15 ;
16 [label="entropy = 0.0\nsamples = 2\nvalue = [0, 2]"] ;
14 -> 16 ;
17 [label="('fed', 'd') <= 0.5\nentropy = 0.98\nsamples = 12\nvalue = [5, 7]"] ;
13 -> 17 ;
18 [label="entropy = 0.881\nsamples = 10\nvalue = [3, 7]"] ;
17 -> 18 ;
19 [label="entropy = 0.0\nsamples = 2\nvalue = [2, 0]"] ;
17 -> 19 ;
20 [label="entropy = 0.0\nsamples = 3\nvalue = [0, 3]"] ;
12 -> 20 ;
21 [label="entropy = 0.0\nsamples = 3\nvalue = [0, 3]"] ;
11 -> 21 ;
22 [label="entropy = 0.0\nsamples = 3\nvalue = [0, 3]"] ;
10 -> 22 ;
23 [label="entropy = 0.0\nsamples = 3\nvalue = [0, 3]"] ;
9 -> 23 ;
24 [label="entropy = 0.0\nsamples = 3\nvalue = [0, 3]"] ;
8 -> 24 ;
25 [label="('are', 'e') <= 1.5\nentropy = 0.592\nsamples = 7\nvalue = [1, 6]"] ;
7 -> 25 ;
26 [label="entropy = 0.0\nsamples = 5\nvalue = [0, 5]"] ;
25 -> 26 ;
27 [label="entropy = 1.0\nsamples = 2\nvalue = [1, 1]"] ;
25 -> 27 ;
28 [label="('you', 'u') <= 0.5\nentropy = 0.946\nsamples = 22\nvalue = [8, 14]"] ;
6 -> 28 ;
29 [label="('no', 'o') <= 0.5\nentropy = 0.764\nsamples = 18\nvalue = [4, 14]"] ;
28 -> 29 ;
30 [label="('and', 'd') <= 0.5\nentropy = 0.544\nsamples = 16\nvalue = [2, 14]"] ;
29 -> 30 ;
31 [label="entropy = 0.0\nsamples = 10\nvalue = [0, 10]"] ;
30 -> 31 ;
32 [label="('we', 'e') <= 0.5\nentropy = 0.918\nsamples = 6\nvalue = [2, 4]"] ;
30 -> 32 ;
33 [label="entropy = 0.918\nsamples = 3\nvalue = [2, 1]"] ;
32 -> 33 ;
34 [label="entropy = 0.0\nsamples = 3\nvalue = [0, 3]"] ;
32 -> 34 ;
35 [label="entropy = 0.0\nsamples = 2\nvalue = [2, 0]"] ;
29 -> 35 ;
36 [label="entropy = 0.0\nsamples = 4\nvalue = [4, 0]"] ;
28 -> 36 ;
37 [label="entropy = 0.0\nsamples = 5\nvalue = [0, 5]"] ;
5 -> 37 ;
38 [label="('new', 'w') <= 0.5\nentropy = 1.0\nsamples = 91\nvalue = [45, 46]"] ;
4 -> 38 ;
39 [label="('that', 't') <= 0.5\nentropy = 0.998\nsamples = 86\nvalue = [45, 41]"] ;
38 -> 39 ;
40 [label="('#climateaction', 'n') <= 0.5\nentropy = 0.995\nsamples = 72\nvalue = [33, 39]"] ;
39 -> 40 ;
41 [label="('they', 'y') <= 0.5\nentropy = 0.999\nsamples = 68\nvalue = [33, 35]"] ;
40 -> 41 ;
42 [label="('w', 'w') <= 0.5\nentropy = 0.999\nsamples = 64\nvalue = [33, 31]"] ;
41 -> 42 ;
43 [label="('pretty', 'y') <= 0.5\nentropy = 0.995\nsamples = 61\nvalue = [33, 28]"] ;
42 -> 43 ;
44 [label="('have', 'e') <= 0.5\nentropy = 0.986\nsamples = 58\nvalue = [33, 25]"] ;
43 -> 44 ;
45 [label="('michael', 'l') <= 0.5\nentropy = 0.996\nsamples = 54\nvalue = [29, 25]"] ;
44 -> 45 ;
46 [label="('if', 'f') <= 0.5\nentropy = 1.0\nsamples = 51\nvalue = [26, 25]"] ;
45 -> 46 ;
47 [label="('you', 'u') <= 0.5\nentropy = 0.991\nsamples = 45\nvalue = [25, 20]"] ;
46 -> 47 ;
48 [label="entropy = 1.0\nsamples = 41\nvalue = [21, 20]"] ;
47 -> 48 ;
49 [label="entropy = 0.0\nsamples = 4\nvalue = [4, 0]"] ;
47 -> 49 ;
50 [label="('prevent', 't') <= 0.5\nentropy = 0.65\nsamples = 6\nvalue = [1, 5]"] ;
46 -> 50 ;
51 [label="entropy = 0.0\nsamples = 4\nvalue = [0, 4]"] ;
50 -> 51 ;
52 [label="entropy = 1.0\nsamples = 2\nvalue = [1, 1]"] ;
50 -> 52 ;
53 [label="entropy = 0.0\nsamples = 3\nvalue = [3, 0]"] ;
45 -> 53 ;
54 [label="entropy = 0.0\nsamples = 4\nvalue = [4, 0]"] ;
44 -> 54 ;
55 [label="entropy = 0.0\nsamples = 3\nvalue = [0, 3]"] ;
43 -> 55 ;
56 [label="entropy = 0.0\nsamples = 3\nvalue = [0, 3]"] ;
42 -> 56 ;
57 [label="entropy = 0.0\nsamples = 4\nvalue = [0, 4]"] ;
41 -> 57 ;
58 [label="entropy = 0.0\nsamples = 4\nvalue = [0, 4]"] ;
40 -> 58 ;
59 [label="('is', 's') <= 0.5\nentropy = 0.592\nsamples = 14\nvalue = [12, 2]"] ;
39 -> 59 ;
60 [label="entropy = 0.0\nsamples = 11\nvalue = [11, 0]"] ;
59 -> 60 ;
61 [label="entropy = 0.918\nsamples = 3\nvalue = [1, 2]"] ;
59 -> 61 ;
62 [label="entropy = 0.0\nsamples = 5\nvalue = [0, 5]"] ;
38 -> 62 ;
63 [label="entropy = 0.0\nsamples = 5\nvalue = [0, 5]"] ;
3 -> 63 ;
64 [label="entropy = 0.0\nsamples = 6\nvalue = [0, 6]"] ;
2 -> 64 ;
65 [label="('to', 'o') <= 0.5\nentropy = 0.829\nsamples = 111\nvalue = [29, 82]"] ;
1 -> 65 ;
66 [label="('on', 'n') <= 0.5\nentropy = 0.945\nsamples = 69\nvalue = [25, 44]"] ;
65 -> 66 ;
67 [label="('no', 'o') <= 0.5\nentropy = 0.98\nsamples = 60\nvalue = [25, 35]"] ;
66 -> 67 ;
68 [label="('with', 'h') <= 0.5\nentropy = 0.954\nsamples = 56\nvalue = [21, 35]"] ;
67 -> 68 ;
69 [label="('a', 'a') <= 0.5\nentropy = 0.924\nsamples = 53\nvalue = [18, 35]"] ;
68 -> 69 ;
70 [label="('and', 'd') <= 0.5\nentropy = 0.995\nsamples = 35\nvalue = [16, 19]"] ;
69 -> 70 ;
71 [label="('how', 'w') <= 0.5\nentropy = 0.958\nsamples = 29\nvalue = [11, 18]"] ;
70 -> 71 ;
72 [label="('are', 'e') <= 0.5\nentropy = 0.918\nsamples = 27\nvalue = [9, 18]"] ;
71 -> 72 ;
73 [label="('#auspol', 'l') <= 0.5\nentropy = 0.855\nsamples = 25\nvalue = [7, 18]"] ;
72 -> 73 ;
74 [label="('rt', 't') <= 0.5\nentropy = 0.773\nsamples = 22\nvalue = [5, 17]"] ;
73 -> 74 ;
75 [label="('doing', 'g') <= 0.5\nentropy = 0.946\nsamples = 11\nvalue = [4, 7]"] ;
74 -> 75 ;
76 [label="('t', 't') <= 1.5\nentropy = 0.991\nsamples = 9\nvalue = [4, 5]"] ;
75 -> 76 ;
77 [label="('t', 't') <= 0.5\nentropy = 0.971\nsamples = 5\nvalue = [3, 2]"] ;
76 -> 77 ;
78 [label="entropy = 0.918\nsamples = 3\nvalue = [1, 2]"] ;
77 -> 78 ;
79 [label="entropy = 0.0\nsamples = 2\nvalue = [2, 0]"] ;
77 -> 79 ;
80 [label="('#liberalplots', 's') <= 0.5\nentropy = 0.811\nsamples = 4\nvalue = [1, 3]"] ;
76 -> 80 ;
81 [label="entropy = 0.0\nsamples = 2\nvalue = [0, 2]"] ;
80 -> 81 ;
82 [label="entropy = 1.0\nsamples = 2\nvalue = [1, 1]"] ;
80 -> 82 ;
83 [label="entropy = 0.0\nsamples = 2\nvalue = [0, 2]"] ;
75 -> 83 ;
84 [label="('hurricanes', 's') <= 0.5\nentropy = 0.439\nsamples = 11\nvalue = [1, 10]"] ;
74 -> 84 ;
85 [label="entropy = 0.0\nsamples = 9\nvalue = [0, 9]"] ;
84 -> 85 ;
86 [label="entropy = 1.0\nsamples = 2\nvalue = [1, 1]"] ;
84 -> 86 ;
87 [label="entropy = 0.918\nsamples = 3\nvalue = [2, 1]"] ;
73 -> 87 ;
88 [label="entropy = 0.0\nsamples = 2\nvalue = [2, 0]"] ;
72 -> 88 ;
89 [label="entropy = 0.0\nsamples = 2\nvalue = [2, 0]"] ;
71 -> 89 ;
90 [label="('but', 't') <= 0.5\nentropy = 0.65\nsamples = 6\nvalue = [5, 1]"] ;
70 -> 90 ;
91 [label="entropy = 0.0\nsamples = 4\nvalue = [4, 0]"] ;
90 -> 91 ;
92 [label="entropy = 1.0\nsamples = 2\nvalue = [1, 1]"] ;
90 -> 92 ;
93 [label="('the', 'e') <= 0.5\nentropy = 0.503\nsamples = 18\nvalue = [2, 16]"] ;
69 -> 93 ;
94 [label="entropy = 0.0\nsamples = 12\nvalue = [0, 12]"] ;
93 -> 94 ;
95 [label="('a', 'a') <= 1.5\nentropy = 0.918\nsamples = 6\nvalue = [2, 4]"] ;
93 -> 95 ;
96 [label="('are', 'e') <= 0.5\nentropy = 1.0\nsamples = 4\nvalue = [2, 2]"] ;
95 -> 96 ;
97 [label="entropy = 0.0\nsamples = 2\nvalue = [2, 0]"] ;
96 -> 97 ;
98 [label="entropy = 0.0\nsamples = 2\nvalue = [0, 2]"] ;
96 -> 98 ;
99 [label="entropy = 0.0\nsamples = 2\nvalue = [0, 2]"] ;
95 -> 99 ;
100 [label="entropy = 0.0\nsamples = 3\nvalue = [3, 0]"] ;
68 -> 100 ;
101 [label="entropy = 0.0\nsamples = 4\nvalue = [4, 0]"] ;
67 -> 101 ;
102 [label="entropy = 0.0\nsamples = 9\nvalue = [0, 9]"] ;
66 -> 102 ;
103 [label="('planet', 't') <= 0.5\nentropy = 0.454\nsamples = 42\nvalue = [4, 38]"] ;
65 -> 103 ;
104 [label="('by', 'y') <= 0.5\nentropy = 0.286\nsamples = 40\nvalue = [2, 38]"] ;
103 -> 104 ;
105 [label="entropy = 0.0\nsamples = 36\nvalue = [0, 36]"] ;
104 -> 105 ;
106 [label="('a', 'a') <= 0.5\nentropy = 1.0\nsamples = 4\nvalue = [2, 2]"] ;
104 -> 106 ;
107 [label="entropy = 0.0\nsamples = 2\nvalue = [2, 0]"] ;
106 -> 107 ;
108 [label="entropy = 0.0\nsamples = 2\nvalue = [0, 2]"] ;
106 -> 108 ;
109 [label="entropy = 0.0\nsamples = 2\nvalue = [2, 0]"] ;
103 -> 109 ;
110 [label="('rt', 't') <= 0.5\nentropy = 0.935\nsamples = 519\nvalue = [182, 337]"] ;
0 -> 110 [labeldistance=2.5, labelangle=-45, headlabel="False"] ;
111 [label="('into', 'o') <= 0.5\nentropy = 0.991\nsamples = 265\nvalue = [118, 147]"] ;
110 -> 111 ;
112 [label="('get', 't') <= 0.5\nentropy = 0.997\nsamples = 253\nvalue = [118, 135]"] ;
111 -> 112 ;
113 [label="('corporations', 's') <= 0.5\nentropy = 0.999\nsamples = 241\nvalue = [117, 124]"] ;
112 -> 113 ;
114 [label="('is', 's') <= 1.5\nentropy = 0.998\nsamples = 236\nvalue = [112, 124]"] ;
113 -> 114 ;
115 [label="('so', 'o') <= 0.5\nentropy = 0.994\nsamples = 224\nvalue = [102, 122]"] ;
114 -> 115 ;
116 [label="('care', 'e') <= 0.5\nentropy = 0.998\nsamples = 210\nvalue = [100, 110]"] ;
115 -> 116 ;
117 [label="('future', 'e') <= 0.5\nentropy = 1.0\nsamples = 205\nvalue = [100, 105]"] ;
116 -> 117 ;
118 [label="('even', 'n') <= 0.5\nentropy = 0.999\nsamples = 201\nvalue = [96, 105]"] ;
117 -> 118 ;
119 [label="('keep', 'p') <= 0.5\nentropy = 0.997\nsamples = 197\nvalue = [92, 105]"] ;
118 -> 119 ;
120 [label="('day', 'y') <= 0.5\nentropy = 0.994\nsamples = 193\nvalue = [88, 105]"] ;
119 -> 120 ;
121 [label="('and', 'd') <= 0.5\nentropy = 0.991\nsamples = 189\nvalue = [84, 105]"] ;
120 -> 121 ;
122 [label="('has', 's') <= 0.5\nentropy = 1.0\nsamples = 133\nvalue = [67, 66]"] ;
121 -> 122 ;
123 [label="('what', 't') <= 0.5\nentropy = 0.999\nsamples = 128\nvalue = [62, 66]"] ;
122 -> 123 ;
124 [label="entropy = 0.999\nsamples = 113\nvalue = [59, 54]"] ;
123 -> 124 ;
125 [label="entropy = 0.722\nsamples = 15\nvalue = [3, 12]"] ;
123 -> 125 ;
126 [label="entropy = 0.0\nsamples = 5\nvalue = [5, 0]"] ;
122 -> 126 ;
127 [label="('brexit', 't') <= 0.5\nentropy = 0.886\nsamples = 56\nvalue = [17, 39]"] ;
121 -> 127 ;
128 [label="('everything', 'g') <= 0.5\nentropy = 0.852\nsamples = 54\nvalue = [15, 39]"] ;
127 -> 128 ;
129 [label="entropy = 0.811\nsamples = 52\nvalue = [13, 39]"] ;
128 -> 129 ;
130 [label="entropy = 0.0\nsamples = 2\nvalue = [2, 0]"] ;
128 -> 130 ;
131 [label="entropy = 0.0\nsamples = 2\nvalue = [2, 0]"] ;
127 -> 131 ;
132 [label="entropy = 0.0\nsamples = 4\nvalue = [4, 0]"] ;
120 -> 132 ;
133 [label="entropy = 0.0\nsamples = 4\nvalue = [4, 0]"] ;
119 -> 133 ;
134 [label="entropy = 0.0\nsamples = 4\nvalue = [4, 0]"] ;
118 -> 134 ;
135 [label="entropy = 0.0\nsamples = 4\nvalue = [4, 0]"] ;
117 -> 135 ;
136 [label="entropy = 0.0\nsamples = 5\nvalue = [0, 5]"] ;
116 -> 136 ;
137 [label="('the', 'e') <= 0.5\nentropy = 0.592\nsamples = 14\nvalue = [2, 12]"] ;
115 -> 137 ;
138 [label="('a', 'a') <= 0.5\nentropy = 0.918\nsamples = 6\nvalue = [2, 4]"] ;
137 -> 138 ;
139 [label="('now', 'w') <= 0.5\nentropy = 1.0\nsamples = 4\nvalue = [2, 2]"] ;
138 -> 139 ;
140 [label="entropy = 0.0\nsamples = 2\nvalue = [2, 0]"] ;
139 -> 140 ;
141 [label="entropy = 0.0\nsamples = 2\nvalue = [0, 2]"] ;
139 -> 141 ;
142 [label="entropy = 0.0\nsamples = 2\nvalue = [0, 2]"] ;
138 -> 142 ;
143 [label="entropy = 0.0\nsamples = 8\nvalue = [0, 8]"] ;
137 -> 143 ;
144 [label="('what', 't') <= 0.5\nentropy = 0.65\nsamples = 12\nvalue = [10, 2]"] ;
114 -> 144 ;
145 [label="entropy = 0.0\nsamples = 7\nvalue = [7, 0]"] ;
144 -> 145 ;
146 [label="('the', 'e') <= 1.5\nentropy = 0.971\nsamples = 5\nvalue = [3, 2]"] ;
144 -> 146 ;
147 [label="entropy = 0.0\nsamples = 2\nvalue = [0, 2]"] ;
146 -> 147 ;
148 [label="entropy = 0.0\nsamples = 3\nvalue = [3, 0]"] ;
146 -> 148 ;
149 [label="entropy = 0.0\nsamples = 5\nvalue = [5, 0]"] ;
113 -> 149 ;
150 [label="('investors', 's') <= 0.5\nentropy = 0.414\nsamples = 12\nvalue = [1, 11]"] ;
112 -> 150 ;
151 [label="entropy = 0.0\nsamples = 10\nvalue = [0, 10]"] ;
150 -> 151 ;
152 [label="entropy = 1.0\nsamples = 2\nvalue = [1, 1]"] ;
150 -> 152 ;
153 [label="entropy = 0.0\nsamples = 12\nvalue = [0, 12]"] ;
111 -> 153 ;
154 [label="('weather', 'r') <= 0.5\nentropy = 0.814\nsamples = 254\nvalue = [64, 190]"] ;
110 -> 154 ;
155 [label="('an', 'n') <= 0.5\nentropy = 0.797\nsamples = 249\nvalue = [60, 189]"] ;
154 -> 155 ;
156 [label="('why', 'y') <= 0.5\nentropy = 0.815\nsamples = 238\nvalue = [60, 178]"] ;
155 -> 156 ;
157 [label="('report', 't') <= 0.5\nentropy = 0.831\nsamples = 228\nvalue = [60, 168]"] ;
156 -> 157 ;
158 [label="('on', 'n') <= 1.5\nentropy = 0.868\nsamples = 197\nvalue = [57, 140]"] ;
157 -> 158 ;
159 [label="('predictions', 's') <= 0.5\nentropy = 0.853\nsamples = 194\nvalue = [54, 140]"] ;
158 -> 159 ;
160 [label="('god', 'd') <= 0.5\nentropy = 0.843\nsamples = 192\nvalue = [52, 140]"] ;
159 -> 160 ;
161 [label="('@tan123', '3') <= 0.5\nentropy = 0.831\nsamples = 190\nvalue = [50, 140]"] ;
160 -> 161 ;
162 [label="('climate', 'e') <= 1.5\nentropy = 0.82\nsamples = 188\nvalue = [48, 140]"] ;
161 -> 162 ;
163 [label="('warren', 'n') <= 0.5\nentropy = 0.843\nsamples = 177\nvalue = [48, 129]"] ;
162 -> 163 ;
164 [label="('@david', 'd') <= 0.5\nentropy = 0.831\nsamples = 175\nvalue = [46, 129]"] ;
163 -> 164 ;
165 [label="('so', 'o') <= 0.5\nentropy = 0.818\nsamples = 173\nvalue = [44, 129]"] ;
164 -> 165 ;
166 [label="('want', 't') <= 0.5\nentropy = 0.783\nsamples = 163\nvalue = [38, 125]"] ;
165 -> 166 ;
167 [label="entropy = 0.767\nsamples = 161\nvalue = [36, 125]"] ;
166 -> 167 ;
168 [label="entropy = 0.0\nsamples = 2\nvalue = [2, 0]"] ;
166 -> 168 ;
169 [label="('real', 'l') <= 0.5\nentropy = 0.971\nsamples = 10\nvalue = [6, 4]"] ;
165 -> 169 ;
170 [label="entropy = 0.811\nsamples = 8\nvalue = [6, 2]"] ;
169 -> 170 ;
171 [label="entropy = 0.0\nsamples = 2\nvalue = [0, 2]"] ;
169 -> 171 ;
172 [label="entropy = 0.0\nsamples = 2\nvalue = [2, 0]"] ;
164 -> 172 ;
173 [label="entropy = 0.0\nsamples = 2\nvalue = [2, 0]"] ;
163 -> 173 ;
174 [label="entropy = 0.0\nsamples = 11\nvalue = [0, 11]"] ;
162 -> 174 ;
175 [label="entropy = 0.0\nsamples = 2\nvalue = [2, 0]"] ;
161 -> 175 ;
176 [label="entropy = 0.0\nsamples = 2\nvalue = [2, 0]"] ;
160 -> 176 ;
177 [label="entropy = 0.0\nsamples = 2\nvalue = [2, 0]"] ;
159 -> 177 ;
178 [label="entropy = 0.0\nsamples = 3\nvalue = [3, 0]"] ;
158 -> 178 ;
179 [label="('your', 'r') <= 0.5\nentropy = 0.459\nsamples = 31\nvalue = [3, 28]"] ;
157 -> 179 ;
180 [label="('despite', 'e') <= 0.5\nentropy = 0.229\nsamples = 27\nvalue = [1, 26]"] ;
179 -> 180 ;
181 [label="entropy = 0.0\nsamples = 25\nvalue = [0, 25]"] ;
180 -> 181 ;
182 [label="entropy = 1.0\nsamples = 2\nvalue = [1, 1]"] ;
180 -> 182 ;
183 [label="('car', 'r') <= 0.5\nentropy = 1.0\nsamples = 4\nvalue = [2, 2]"] ;
179 -> 183 ;
184 [label="entropy = 0.0\nsamples = 2\nvalue = [2, 0]"] ;
183 -> 184 ;
185 [label="entropy = 0.0\nsamples = 2\nvalue = [0, 2]"] ;
183 -> 185 ;
186 [label="entropy = 0.0\nsamples = 10\nvalue = [0, 10]"] ;
156 -> 186 ;
187 [label="entropy = 0.0\nsamples = 11\nvalue = [0, 11]"] ;
155 -> 187 ;
188 [label="('it', 't') <= 0.5\nentropy = 0.722\nsamples = 5\nvalue = [4, 1]"] ;
154 -> 188 ;
189 [label="entropy = 1.0\nsamples = 2\nvalue = [1, 1]"] ;
188 -> 189 ;
190 [label="entropy = 0.0\nsamples = 3\nvalue = [3, 0]"] ;
188 -> 190 ;
}
