digraph Tree {
node [shape=box] ;
0 [label="('climate', 'e') <= 0.5\nentropy = 0.99\nsamples = 1027\nvalue = [454, 573]"] ;
1 [label="('#climatechange', 'e') <= 0.5\nentropy = 0.99\nsamples = 516\nvalue = [289, 227]"] ;
0 -> 1 [labeldistance=2.5, labelangle=45, headlabel="True"] ;
2 [label="('emissions', 's') <= 0.5\nentropy = 0.952\nsamples = 409\nvalue = [257, 152]"] ;
1 -> 2 ;
3 [label="('in', 'n') <= 0.5\nentropy = 0.941\nsamples = 397\nvalue = [255, 142]"] ;
2 -> 3 ;
4 [label="('at', 't') <= 0.5\nentropy = 0.901\nsamples = 300\nvalue = [205, 95]"] ;
3 -> 4 ;
5 [label="('#globalwarming', 'g') <= 0.5\nentropy = 0.879\nsamples = 282\nvalue = [198, 84]"] ;
4 -> 5 ;
6 [label="('would', 'd') <= 0.5\nentropy = 0.862\nsamples = 277\nvalue = [198, 79]"] ;
5 -> 6 ;
7 [label="('are', 'e') <= 0.5\nentropy = 0.846\nsamples = 271\nvalue = [197, 74]"] ;
6 -> 7 ;
8 [label="('hurricanes', 's') <= 0.5\nentropy = 0.878\nsamples = 242\nvalue = [170, 72]"] ;
7 -> 8 ;
9 [label="('levels', 's') <= 0.5\nentropy = 0.857\nsamples = 235\nvalue = [169, 66]"] ;
8 -> 9 ;
10 [label="('unequivocal', 'l') <= 0.5\nentropy = 0.844\nsamples = 232\nvalue = [169, 63]"] ;
9 -> 10 ;
11 [label="('#climatebreakdown', 'n') <= 0.5\nentropy = 0.83\nsamples = 229\nvalue = [169, 60]"] ;
10 -> 11 ;
12 [label="('be', 'e') <= 0.5\nentropy = 0.811\nsamples = 224\nvalue = [168, 56]"] ;
11 -> 12 ;
13 [label="('team', 'm') <= 0.5\nentropy = 0.776\nsamples = 210\nvalue = [162, 48]"] ;
12 -> 13 ;
14 [label="('written', 'n') <= 0.5\nentropy = 0.762\nsamples = 208\nvalue = [162, 46]"] ;
13 -> 14 ;
15 [label="('agriculture', 'e') <= 0.5\nentropy = 0.748\nsamples = 206\nvalue = [162, 44]"] ;
14 -> 15 ;
16 [label="entropy = 0.734\nsamples = 204\nvalue = [162, 42]"] ;
15 -> 16 ;
17 [label="entropy = 0.0\nsamples = 2\nvalue = [0, 2]"] ;
15 -> 17 ;
18 [label="entropy = 0.0\nsamples = 2\nvalue = [0, 2]"] ;
14 -> 18 ;
19 [label="entropy = 0.0\nsamples = 2\nvalue = [0, 2]"] ;
13 -> 19 ;
20 [label="('s', 's') <= 0.5\nentropy = 0.985\nsamples = 14\nvalue = [6, 8]"] ;
12 -> 20 ;
21 [label="('yes', 's') <= 0.5\nentropy = 0.845\nsamples = 11\nvalue = [3, 8]"] ;
20 -> 21 ;
22 [label="('to', 'o') <= 1.5\nentropy = 0.503\nsamples = 9\nvalue = [1, 8]"] ;
21 -> 22 ;
23 [label="entropy = 0.0\nsamples = 7\nvalue = [0, 7]"] ;
22 -> 23 ;
24 [label="entropy = 1.0\nsamples = 2\nvalue = [1, 1]"] ;
22 -> 24 ;
25 [label="entropy = 0.0\nsamples = 2\nvalue = [2, 0]"] ;
21 -> 25 ;
26 [label="entropy = 0.0\nsamples = 3\nvalue = [3, 0]"] ;
20 -> 26 ;
27 [label="('is', 's') <= 0.5\nentropy = 0.722\nsamples = 5\nvalue = [1, 4]"] ;
11 -> 27 ;
28 [label="entropy = 0.0\nsamples = 3\nvalue = [0, 3]"] ;
27 -> 28 ;
29 [label="entropy = 1.0\nsamples = 2\nvalue = [1, 1]"] ;
27 -> 29 ;
30 [label="entropy = 0.0\nsamples = 3\nvalue = [0, 3]"] ;
10 -> 30 ;
31 [label="entropy = 0.0\nsamples = 3\nvalue = [0, 3]"] ;
9 -> 31 ;
32 [label="('about', 't') <= 0.5\nentropy = 0.592\nsamples = 7\nvalue = [1, 6]"] ;
8 -> 32 ;
33 [label="entropy = 0.0\nsamples = 5\nvalue = [0, 5]"] ;
32 -> 33 ;
34 [label="entropy = 1.0\nsamples = 2\nvalue = [1, 1]"] ;
32 -> 34 ;
35 [label="('have', 'e') <= 0.5\nentropy = 0.362\nsamples = 29\nvalue = [27, 2]"] ;
7 -> 35 ;
36 [label="entropy = 0.0\nsamples = 26\nvalue = [26, 0]"] ;
35 -> 36 ;
37 [label="entropy = 0.918\nsamples = 3\nvalue = [1, 2]"] ;
35 -> 37 ;
38 [label="('rt', 't') <= 0.5\nentropy = 0.65\nsamples = 6\nvalue = [1, 5]"] ;
6 -> 38 ;
39 [label="entropy = 1.0\nsamples = 2\nvalue = [1, 1]"] ;
38 -> 39 ;
40 [label="entropy = 0.0\nsamples = 4\nvalue = [0, 4]"] ;
38 -> 40 ;
41 [label="entropy = 0.0\nsamples = 5\nvalue = [0, 5]"] ;
5 -> 41 ;
42 [label="('to', 'o') <= 0.5\nentropy = 0.964\nsamples = 18\nvalue = [7, 11]"] ;
4 -> 42 ;
43 [label="('look', 'k') <= 0.5\nentropy = 0.98\nsamples = 12\nvalue = [7, 5]"] ;
42 -> 43 ;
44 [label="('of', 'f') <= 0.5\nentropy = 0.991\nsamples = 9\nvalue = [4, 5]"] ;
43 -> 44 ;
45 [label="('rt', 't') <= 0.5\nentropy = 0.863\nsamples = 7\nvalue = [2, 5]"] ;
44 -> 45 ;
46 [label="entropy = 0.0\nsamples = 3\nvalue = [0, 3]"] ;
45 -> 46 ;
47 [label="('the', 'e') <= 1.5\nentropy = 1.0\nsamples = 4\nvalue = [2, 2]"] ;
45 -> 47 ;
48 [label="entropy = 0.0\nsamples = 2\nvalue = [2, 0]"] ;
47 -> 48 ;
49 [label="entropy = 0.0\nsamples = 2\nvalue = [0, 2]"] ;
47 -> 49 ;
50 [label="entropy = 0.0\nsamples = 2\nvalue = [2, 0]"] ;
44 -> 50 ;
51 [label="entropy = 0.0\nsamples = 3\nvalue = [3, 0]"] ;
43 -> 51 ;
52 [label="entropy = 0.0\nsamples = 6\nvalue = [0, 6]"] ;
42 -> 52 ;
53 [label="('rt', 't') <= 0.5\nentropy = 0.999\nsamples = 97\nvalue = [50, 47]"] ;
3 -> 53 ;
54 [label="('storms', 's') <= 0.5\nentropy = 0.828\nsamples = 23\nvalue = [17, 6]"] ;
53 -> 54 ;
55 [label="('one', 'e') <= 0.5\nentropy = 0.702\nsamples = 21\nvalue = [17, 4]"] ;
54 -> 55 ;
56 [label="('and', 'd') <= 0.5\nentropy = 0.485\nsamples = 19\nvalue = [17, 2]"] ;
55 -> 56 ;
57 [label="entropy = 0.0\nsamples = 13\nvalue = [13, 0]"] ;
56 -> 57 ;
58 [label="('be', 'e') <= 0.5\nentropy = 0.918\nsamples = 6\nvalue = [4, 2]"] ;
56 -> 58 ;
59 [label="entropy = 0.918\nsamples = 3\nvalue = [1, 2]"] ;
58 -> 59 ;
60 [label="entropy = 0.0\nsamples = 3\nvalue = [3, 0]"] ;
58 -> 60 ;
61 [label="entropy = 0.0\nsamples = 2\nvalue = [0, 2]"] ;
55 -> 61 ;
62 [label="entropy = 0.0\nsamples = 2\nvalue = [0, 2]"] ;
54 -> 62 ;
63 [label="('report', 't') <= 0.5\nentropy = 0.992\nsamples = 74\nvalue = [33, 41]"] ;
53 -> 63 ;
64 [label="('was', 's') <= 0.5\nentropy = 0.999\nsamples = 68\nvalue = [33, 35]"] ;
63 -> 64 ;
65 [label="('i', 'i') <= 0.5\nentropy = 0.994\nsamples = 64\nvalue = [29, 35]"] ;
64 -> 65 ;
66 [label="('michael', 'l') <= 0.5\nentropy = 1.0\nsamples = 59\nvalue = [29, 30]"] ;
65 -> 66 ;
67 [label="('people', 'e') <= 0.5\nentropy = 0.996\nsamples = 56\nvalue = [26, 30]"] ;
66 -> 67 ;
68 [label="('we', 'e') <= 0.5\nentropy = 0.981\nsamples = 50\nvalue = [21, 29]"] ;
67 -> 68 ;
69 [label="('be', 'e') <= 0.5\nentropy = 1.0\nsamples = 40\nvalue = [20, 20]"] ;
68 -> 69 ;
70 [label="('new', 'w') <= 0.5\nentropy = 0.991\nsamples = 36\nvalue = [16, 20]"] ;
69 -> 70 ;
71 [label="('it', 't') <= 0.5\nentropy = 1.0\nsamples = 32\nvalue = [16, 16]"] ;
70 -> 71 ;
72 [label="('hours', 's') <= 0.5\nentropy = 0.983\nsamples = 26\nvalue = [11, 15]"] ;
71 -> 72 ;
73 [label="('to', 'o') <= 0.5\nentropy = 0.954\nsamples = 24\nvalue = [9, 15]"] ;
72 -> 73 ;
74 [label="entropy = 1.0\nsamples = 16\nvalue = [8, 8]"] ;
73 -> 74 ;
75 [label="entropy = 0.544\nsamples = 8\nvalue = [1, 7]"] ;
73 -> 75 ;
76 [label="entropy = 0.0\nsamples = 2\nvalue = [2, 0]"] ;
72 -> 76 ;
77 [label="('the', 'e') <= 1.5\nentropy = 0.65\nsamples = 6\nvalue = [5, 1]"] ;
71 -> 77 ;
78 [label="entropy = 0.0\nsamples = 4\nvalue = [4, 0]"] ;
77 -> 78 ;
79 [label="entropy = 1.0\nsamples = 2\nvalue = [1, 1]"] ;
77 -> 79 ;
80 [label="entropy = 0.0\nsamples = 4\nvalue = [0, 4]"] ;
70 -> 80 ;
81 [label="entropy = 0.0\nsamples = 4\nvalue = [4, 0]"] ;
69 -> 81 ;
82 [label="('a', 'a') <= 1.5\nentropy = 0.469\nsamples = 10\nvalue = [1, 9]"] ;
68 -> 82 ;
83 [label="entropy = 0.0\nsamples = 8\nvalue = [0, 8]"] ;
82 -> 83 ;
84 [label="entropy = 1.0\nsamples = 2\nvalue = [1, 1]"] ;
82 -> 84 ;
85 [label="('are', 'e') <= 0.5\nentropy = 0.65\nsamples = 6\nvalue = [5, 1]"] ;
67 -> 85 ;
86 [label="entropy = 0.0\nsamples = 4\nvalue = [4, 0]"] ;
85 -> 86 ;
87 [label="entropy = 1.0\nsamples = 2\nvalue = [1, 1]"] ;
85 -> 87 ;
88 [label="entropy = 0.0\nsamples = 3\nvalue = [3, 0]"] ;
66 -> 88 ;
89 [label="entropy = 0.0\nsamples = 5\nvalue = [0, 5]"] ;
65 -> 89 ;
90 [label="entropy = 0.0\nsamples = 4\nvalue = [4, 0]"] ;
64 -> 90 ;
91 [label="entropy = 0.0\nsamples = 6\nvalue = [0, 6]"] ;
63 -> 91 ;
92 [label="('of', 'f') <= 1.5\nentropy = 0.65\nsamples = 12\nvalue = [2, 10]"] ;
2 -> 92 ;
93 [label="entropy = 0.0\nsamples = 10\nvalue = [0, 10]"] ;
92 -> 93 ;
94 [label="entropy = 0.0\nsamples = 2\nvalue = [2, 0]"] ;
92 -> 94 ;
95 [label="('take', 'e') <= 0.5\nentropy = 0.88\nsamples = 107\nvalue = [32, 75]"] ;
1 -> 95 ;
96 [label="('will', 'l') <= 0.5\nentropy = 0.854\nsamples = 104\nvalue = [29, 75]"] ;
95 -> 96 ;
97 [label="('an', 'n') <= 0.5\nentropy = 0.888\nsamples = 95\nvalue = [29, 66]"] ;
96 -> 97 ;
98 [label="('#hurricanemichael', 'l') <= 0.5\nentropy = 0.914\nsamples = 88\nvalue = [29, 59]"] ;
97 -> 98 ;
99 [label="('and', 'd') <= 0.5\nentropy = 0.937\nsamples = 82\nvalue = [29, 53]"] ;
98 -> 99 ;
100 [label="('rt', 't') <= 0.5\nentropy = 0.845\nsamples = 55\nvalue = [15, 40]"] ;
99 -> 100 ;
101 [label="('we', 'e') <= 0.5\nentropy = 0.998\nsamples = 19\nvalue = [9, 10]"] ;
100 -> 101 ;
102 [label="('10', '0') <= 0.5\nentropy = 0.971\nsamples = 15\nvalue = [9, 6]"] ;
101 -> 102 ;
103 [label="('t', 't') <= 1.5\nentropy = 0.89\nsamples = 13\nvalue = [9, 4]"] ;
102 -> 103 ;
104 [label="entropy = 0.0\nsamples = 6\nvalue = [6, 0]"] ;
103 -> 104 ;
105 [label="('#energy', 'y') <= 0.5\nentropy = 0.985\nsamples = 7\nvalue = [3, 4]"] ;
103 -> 105 ;
106 [label="('s', 's') <= 0.5\nentropy = 0.971\nsamples = 5\nvalue = [3, 2]"] ;
105 -> 106 ;
107 [label="entropy = 0.0\nsamples = 2\nvalue = [2, 0]"] ;
106 -> 107 ;
108 [label="entropy = 0.918\nsamples = 3\nvalue = [1, 2]"] ;
106 -> 108 ;
109 [label="entropy = 0.0\nsamples = 2\nvalue = [0, 2]"] ;
105 -> 109 ;
110 [label="entropy = 0.0\nsamples = 2\nvalue = [0, 2]"] ;
102 -> 110 ;
111 [label="entropy = 0.0\nsamples = 4\nvalue = [0, 4]"] ;
101 -> 111 ;
112 [label="('live', 'e') <= 0.5\nentropy = 0.65\nsamples = 36\nvalue = [6, 30]"] ;
100 -> 112 ;
113 [label="('rt', 't') <= 1.5\nentropy = 0.523\nsamples = 34\nvalue = [4, 30]"] ;
112 -> 113 ;
114 [label="('of', 'f') <= 0.5\nentropy = 0.353\nsamples = 30\nvalue = [2, 28]"] ;
113 -> 114 ;
115 [label="entropy = 0.0\nsamples = 20\nvalue = [0, 20]"] ;
114 -> 115 ;
116 [label="('https', 's') <= 0.5\nentropy = 0.722\nsamples = 10\nvalue = [2, 8]"] ;
114 -> 116 ;
117 [label="('on', 'n') <= 0.5\nentropy = 0.918\nsamples = 6\nvalue = [2, 4]"] ;
116 -> 117 ;
118 [label="('for', 'r') <= 0.5\nentropy = 1.0\nsamples = 4\nvalue = [2, 2]"] ;
117 -> 118 ;
119 [label="entropy = 0.0\nsamples = 2\nvalue = [2, 0]"] ;
118 -> 119 ;
120 [label="entropy = 0.0\nsamples = 2\nvalue = [0, 2]"] ;
118 -> 120 ;
121 [label="entropy = 0.0\nsamples = 2\nvalue = [0, 2]"] ;
117 -> 121 ;
122 [label="entropy = 0.0\nsamples = 4\nvalue = [0, 4]"] ;
116 -> 122 ;
123 [label="('ipcc', 'c') <= 0.5\nentropy = 1.0\nsamples = 4\nvalue = [2, 2]"] ;
113 -> 123 ;
124 [label="entropy = 0.0\nsamples = 2\nvalue = [2, 0]"] ;
123 -> 124 ;
125 [label="entropy = 0.0\nsamples = 2\nvalue = [0, 2]"] ;
123 -> 125 ;
126 [label="entropy = 0.0\nsamples = 2\nvalue = [2, 0]"] ;
112 -> 126 ;
127 [label="('when', 'n') <= 0.5\nentropy = 0.999\nsamples = 27\nvalue = [14, 13]"] ;
99 -> 127 ;
128 [label="('from', 'm') <= 0.5\nentropy = 0.98\nsamples = 24\nvalue = [14, 10]"] ;
127 -> 128 ;
129 [label="('are', 'e') <= 0.5\nentropy = 0.946\nsamples = 22\nvalue = [14, 8]"] ;
128 -> 129 ;
130 [label="('is', 's') <= 0.5\nentropy = 0.852\nsamples = 18\nvalue = [13, 5]"] ;
129 -> 130 ;
131 [label="('our', 'r') <= 0.5\nentropy = 0.961\nsamples = 13\nvalue = [8, 5]"] ;
130 -> 131 ;
132 [label="('t', 't') <= 0.5\nentropy = 0.845\nsamples = 11\nvalue = [8, 3]"] ;
131 -> 132 ;
133 [label="('s', 's') <= 0.5\nentropy = 1.0\nsamples = 6\nvalue = [3, 3]"] ;
132 -> 133 ;
134 [label="('in', 'n') <= 0.5\nentropy = 0.811\nsamples = 4\nvalue = [1, 3]"] ;
133 -> 134 ;
135 [label="entropy = 0.0\nsamples = 2\nvalue = [0, 2]"] ;
134 -> 135 ;
136 [label="entropy = 1.0\nsamples = 2\nvalue = [1, 1]"] ;
134 -> 136 ;
137 [label="entropy = 0.0\nsamples = 2\nvalue = [2, 0]"] ;
133 -> 137 ;
138 [label="entropy = 0.0\nsamples = 5\nvalue = [5, 0]"] ;
132 -> 138 ;
139 [label="entropy = 0.0\nsamples = 2\nvalue = [0, 2]"] ;
131 -> 139 ;
140 [label="entropy = 0.0\nsamples = 5\nvalue = [5, 0]"] ;
130 -> 140 ;
141 [label="('of', 'f') <= 0.5\nentropy = 0.811\nsamples = 4\nvalue = [1, 3]"] ;
129 -> 141 ;
142 [label="entropy = 1.0\nsamples = 2\nvalue = [1, 1]"] ;
141 -> 142 ;
143 [label="entropy = 0.0\nsamples = 2\nvalue = [0, 2]"] ;
141 -> 143 ;
144 [label="entropy = 0.0\nsamples = 2\nvalue = [0, 2]"] ;
128 -> 144 ;
145 [label="entropy = 0.0\nsamples = 3\nvalue = [0, 3]"] ;
127 -> 145 ;
146 [label="entropy = 0.0\nsamples = 6\nvalue = [0, 6]"] ;
98 -> 146 ;
147 [label="entropy = 0.0\nsamples = 7\nvalue = [0, 7]"] ;
97 -> 147 ;
148 [label="entropy = 0.0\nsamples = 9\nvalue = [0, 9]"] ;
96 -> 148 ;
149 [label="entropy = 0.0\nsamples = 3\nvalue = [3, 0]"] ;
95 -> 149 ;
150 [label="('rt', 't') <= 0.5\nentropy = 0.908\nsamples = 511\nvalue = [165, 346]"] ;
0 -> 150 [labeldistance=2.5, labelangle=-45, headlabel="False"] ;
151 [label="('school', 'l') <= 0.5\nentropy = 0.978\nsamples = 259\nvalue = [107, 152]"] ;
150 -> 151 ;
152 [label="('future', 'e') <= 0.5\nentropy = 0.973\nsamples = 255\nvalue = [103, 152]"] ;
151 -> 152 ;
153 [label="('over', 'r') <= 0.5\nentropy = 0.968\nsamples = 251\nvalue = [99, 152]"] ;
152 -> 153 ;
154 [label="('into', 'o') <= 0.5\nentropy = 0.973\nsamples = 245\nvalue = [99, 146]"] ;
153 -> 154 ;
155 [label="('been', 'n') <= 0.5\nentropy = 0.979\nsamples = 239\nvalue = [99, 140]"] ;
154 -> 155 ;
156 [label="('world', 'd') <= 0.5\nentropy = 0.97\nsamples = 231\nvalue = [92, 139]"] ;
155 -> 156 ;
157 [label="('nothing', 'g') <= 0.5\nentropy = 0.979\nsamples = 219\nvalue = [91, 128]"] ;
156 -> 157 ;
158 [label="('of', 'f') <= 1.5\nentropy = 0.97\nsamples = 211\nvalue = [84, 127]"] ;
157 -> 158 ;
159 [label="('my', 'y') <= 0.5\nentropy = 0.955\nsamples = 197\nvalue = [74, 123]"] ;
158 -> 159 ;
160 [label="('farce', 'e') <= 0.5\nentropy = 0.945\nsamples = 193\nvalue = [70, 123]"] ;
159 -> 160 ;
161 [label="('think', 'k') <= 0.5\nentropy = 0.936\nsamples = 190\nvalue = [67, 123]"] ;
160 -> 161 ;
162 [label="('and', 'd') <= 0.5\nentropy = 0.927\nsamples = 187\nvalue = [64, 123]"] ;
161 -> 162 ;
163 [label="('it', 't') <= 1.5\nentropy = 0.967\nsamples = 132\nvalue = [52, 80]"] ;
162 -> 163 ;
164 [label="('hurricanes', 's') <= 0.5\nentropy = 0.958\nsamples = 129\nvalue = [49, 80]"] ;
163 -> 164 ;
165 [label="entropy = 0.939\nsamples = 121\nvalue = [43, 78]"] ;
164 -> 165 ;
166 [label="entropy = 0.811\nsamples = 8\nvalue = [6, 2]"] ;
164 -> 166 ;
167 [label="entropy = 0.0\nsamples = 3\nvalue = [3, 0]"] ;
163 -> 167 ;
168 [label="('on', 'n') <= 0.5\nentropy = 0.757\nsamples = 55\nvalue = [12, 43]"] ;
162 -> 168 ;
169 [label="('to', 'o') <= 0.5\nentropy = 0.599\nsamples = 48\nvalue = [7, 41]"] ;
168 -> 169 ;
170 [label="entropy = 0.0\nsamples = 22\nvalue = [0, 22]"] ;
169 -> 170 ;
171 [label="entropy = 0.84\nsamples = 26\nvalue = [7, 19]"] ;
169 -> 171 ;
172 [label="('you', 'u') <= 0.5\nentropy = 0.863\nsamples = 7\nvalue = [5, 2]"] ;
168 -> 172 ;
173 [label="entropy = 1.0\nsamples = 4\nvalue = [2, 2]"] ;
172 -> 173 ;
174 [label="entropy = 0.0\nsamples = 3\nvalue = [3, 0]"] ;
172 -> 174 ;
175 [label="entropy = 0.0\nsamples = 3\nvalue = [3, 0]"] ;
161 -> 175 ;
176 [label="entropy = 0.0\nsamples = 3\nvalue = [3, 0]"] ;
160 -> 176 ;
177 [label="entropy = 0.0\nsamples = 4\nvalue = [4, 0]"] ;
159 -> 177 ;
178 [label="('are', 'e') <= 0.5\nentropy = 0.863\nsamples = 14\nvalue = [10, 4]"] ;
158 -> 178 ;
179 [label="('about', 't') <= 0.5\nentropy = 0.503\nsamples = 9\nvalue = [8, 1]"] ;
178 -> 179 ;
180 [label="entropy = 0.0\nsamples = 6\nvalue = [6, 0]"] ;
179 -> 180 ;
181 [label="entropy = 0.918\nsamples = 3\nvalue = [2, 1]"] ;
179 -> 181 ;
182 [label="('all', 'l') <= 0.5\nentropy = 0.971\nsamples = 5\nvalue = [2, 3]"] ;
178 -> 182 ;
183 [label="entropy = 0.0\nsamples = 3\nvalue = [0, 3]"] ;
182 -> 183 ;
184 [label="entropy = 0.0\nsamples = 2\nvalue = [2, 0]"] ;
182 -> 184 ;
185 [label="('florida', 'a') <= 0.5\nentropy = 0.544\nsamples = 8\nvalue = [7, 1]"] ;
157 -> 185 ;
186 [label="entropy = 0.0\nsamples = 6\nvalue = [6, 0]"] ;
185 -> 186 ;
187 [label="entropy = 1.0\nsamples = 2\nvalue = [1, 1]"] ;
185 -> 187 ;
188 [label="('there', 'e') <= 0.5\nentropy = 0.414\nsamples = 12\nvalue = [1, 11]"] ;
156 -> 188 ;
189 [label="entropy = 0.0\nsamples = 10\nvalue = [0, 10]"] ;
188 -> 189 ;
190 [label="entropy = 1.0\nsamples = 2\nvalue = [1, 1]"] ;
188 -> 190 ;
191 [label="('since', 'e') <= 0.5\nentropy = 0.544\nsamples = 8\nvalue = [7, 1]"] ;
155 -> 191 ;
192 [label="entropy = 0.0\nsamples = 6\nvalue = [6, 0]"] ;
191 -> 192 ;
193 [label="entropy = 1.0\nsamples = 2\nvalue = [1, 1]"] ;
191 -> 193 ;
194 [label="entropy = 0.0\nsamples = 6\nvalue = [0, 6]"] ;
154 -> 194 ;
195 [label="entropy = 0.0\nsamples = 6\nvalue = [0, 6]"] ;
153 -> 195 ;
196 [label="entropy = 0.0\nsamples = 4\nvalue = [4, 0]"] ;
152 -> 196 ;
197 [label="entropy = 0.0\nsamples = 4\nvalue = [4, 0]"] ;
151 -> 197 ;
198 [label="('world', 'd') <= 0.5\nentropy = 0.778\nsamples = 252\nvalue = [58, 194]"] ;
150 -> 198 ;
199 [label="('weather', 'r') <= 0.5\nentropy = 0.806\nsamples = 235\nvalue = [58, 177]"] ;
198 -> 199 ;
200 [label="('some', 'e') <= 0.5\nentropy = 0.79\nsamples = 232\nvalue = [55, 177]"] ;
199 -> 200 ;
201 [label="('communities', 's') <= 0.5\nentropy = 0.773\nsamples = 229\nvalue = [52, 177]"] ;
200 -> 201 ;
202 [label="('@tan123', '3') <= 0.5\nentropy = 0.761\nsamples = 227\nvalue = [50, 177]"] ;
201 -> 202 ;
203 [label="('lot', 't') <= 0.5\nentropy = 0.748\nsamples = 225\nvalue = [48, 177]"] ;
202 -> 203 ;
204 [label="('warren', 'n') <= 0.5\nentropy = 0.734\nsamples = 223\nvalue = [46, 177]"] ;
203 -> 204 ;
205 [label="('way', 'y') <= 0.5\nentropy = 0.72\nsamples = 221\nvalue = [44, 177]"] ;
204 -> 205 ;
206 [label="('good', 'd') <= 0.5\nentropy = 0.705\nsamples = 219\nvalue = [42, 177]"] ;
205 -> 206 ;
207 [label="('live', 'e') <= 0.5\nentropy = 0.689\nsamples = 217\nvalue = [40, 177]"] ;
206 -> 207 ;
208 [label="('s', 's') <= 0.5\nentropy = 0.659\nsamples = 211\nvalue = [36, 175]"] ;
207 -> 208 ;
209 [label="('change', 'e') <= 0.5\nentropy = 0.727\nsamples = 168\nvalue = [34, 134]"] ;
208 -> 209 ;
210 [label="('i', 'i') <= 0.5\nentropy = 0.98\nsamples = 24\nvalue = [10, 14]"] ;
209 -> 210 ;
211 [label="('scientists', 's') <= 0.5\nentropy = 0.881\nsamples = 20\nvalue = [6, 14]"] ;
210 -> 211 ;
212 [label="entropy = 0.672\nsamples = 17\nvalue = [3, 14]"] ;
211 -> 212 ;
213 [label="entropy = 0.0\nsamples = 3\nvalue = [3, 0]"] ;
211 -> 213 ;
214 [label="entropy = 0.0\nsamples = 4\nvalue = [4, 0]"] ;
210 -> 214 ;
215 [label="('storm', 'm') <= 0.5\nentropy = 0.65\nsamples = 144\nvalue = [24, 120]"] ;
209 -> 215 ;
216 [label="('@themarketswork', 'k') <= 0.5\nentropy = 0.622\nsamples = 142\nvalue = [22, 120]"] ;
215 -> 216 ;
217 [label="entropy = 0.592\nsamples = 140\nvalue = [20, 120]"] ;
216 -> 217 ;
218 [label="entropy = 0.0\nsamples = 2\nvalue = [2, 0]"] ;
216 -> 218 ;
219 [label="entropy = 0.0\nsamples = 2\nvalue = [2, 0]"] ;
215 -> 219 ;
220 [label="('@pixelatedboat', 't') <= 0.5\nentropy = 0.271\nsamples = 43\nvalue = [2, 41]"] ;
208 -> 220 ;
221 [label="('fight', 't') <= 0.5\nentropy = 0.165\nsamples = 41\nvalue = [1, 40]"] ;
220 -> 221 ;
222 [label="entropy = 0.0\nsamples = 39\nvalue = [0, 39]"] ;
221 -> 222 ;
223 [label="entropy = 1.0\nsamples = 2\nvalue = [1, 1]"] ;
221 -> 223 ;
224 [label="entropy = 1.0\nsamples = 2\nvalue = [1, 1]"] ;
220 -> 224 ;
225 [label="('in', 'n') <= 0.5\nentropy = 0.918\nsamples = 6\nvalue = [4, 2]"] ;
207 -> 225 ;
226 [label="entropy = 0.0\nsamples = 3\nvalue = [3, 0]"] ;
225 -> 226 ;
227 [label="entropy = 0.918\nsamples = 3\nvalue = [1, 2]"] ;
225 -> 227 ;
228 [label="entropy = 0.0\nsamples = 2\nvalue = [2, 0]"] ;
206 -> 228 ;
229 [label="entropy = 0.0\nsamples = 2\nvalue = [2, 0]"] ;
205 -> 229 ;
230 [label="entropy = 0.0\nsamples = 2\nvalue = [2, 0]"] ;
204 -> 230 ;
231 [label="entropy = 0.0\nsamples = 2\nvalue = [2, 0]"] ;
203 -> 231 ;
232 [label="entropy = 0.0\nsamples = 2\nvalue = [2, 0]"] ;
202 -> 232 ;
233 [label="entropy = 0.0\nsamples = 2\nvalue = [2, 0]"] ;
201 -> 233 ;
234 [label="entropy = 0.0\nsamples = 3\nvalue = [3, 0]"] ;
200 -> 234 ;
235 [label="entropy = 0.0\nsamples = 3\nvalue = [3, 0]"] ;
199 -> 235 ;
236 [label="entropy = 0.0\nsamples = 17\nvalue = [0, 17]"] ;
198 -> 236 ;
}
