digraph Tree {
node [shape=box] ;
0 [label="('climate', 'e') <= 0.5\nentropy = 0.99\nsamples = 1027\nvalue = [454, 573]"] ;
1 [label="('#climatechange', 'e') <= 0.5\nentropy = 0.991\nsamples = 502\nvalue = [279, 223]"] ;
0 -> 1 [labeldistance=2.5, labelangle=45, headlabel="True"] ;
2 [label="('in', 'n') <= 0.5\nentropy = 0.957\nsamples = 402\nvalue = [250, 152]"] ;
1 -> 2 ;
3 [label="('is', 's') <= 0.5\nentropy = 0.912\nsamples = 303\nvalue = [204, 99]"] ;
2 -> 3 ;
4 [label="('emissions', 's') <= 0.5\nentropy = 0.839\nsamples = 220\nvalue = [161, 59]"] ;
3 -> 4 ;
5 [label="('setting', 'g') <= 0.5\nentropy = 0.802\nsamples = 209\nvalue = [158, 51]"] ;
4 -> 5 ;
6 [label="('reefs', 's') <= 0.5\nentropy = 0.783\nsamples = 206\nvalue = [158, 48]"] ;
5 -> 6 ;
7 [label="('important', 't') <= 0.5\nentropy = 0.77\nsamples = 204\nvalue = [158, 46]"] ;
6 -> 7 ;
8 [label="('of', 'f') <= 0.5\nentropy = 0.756\nsamples = 202\nvalue = [158, 44]"] ;
7 -> 8 ;
9 [label="('will', 'l') <= 0.5\nentropy = 0.819\nsamples = 157\nvalue = [117, 40]"] ;
8 -> 9 ;
10 [label="('the', 'e') <= 2.5\nentropy = 0.772\nsamples = 150\nvalue = [116, 34]"] ;
9 -> 10 ;
11 [label="('interesting', 'g') <= 0.5\nentropy = 0.753\nsamples = 148\nvalue = [116, 32]"] ;
10 -> 11 ;
12 [label="('national', 'l') <= 0.5\nentropy = 0.733\nsamples = 146\nvalue = [116, 30]"] ;
11 -> 12 ;
13 [label="('humanity', 'y') <= 0.5\nentropy = 0.711\nsamples = 144\nvalue = [116, 28]"] ;
12 -> 13 ;
14 [label="('fossil', 'l') <= 0.5\nentropy = 0.687\nsamples = 142\nvalue = [116, 26]"] ;
13 -> 14 ;
15 [label="('about', 't') <= 0.5\nentropy = 0.65\nsamples = 138\nvalue = [115, 23]"] ;
14 -> 15 ;
16 [label="entropy = 0.589\nsamples = 127\nvalue = [109, 18]"] ;
15 -> 16 ;
17 [label="entropy = 0.994\nsamples = 11\nvalue = [6, 5]"] ;
15 -> 17 ;
18 [label="('fuel', 'l') <= 0.5\nentropy = 0.811\nsamples = 4\nvalue = [1, 3]"] ;
14 -> 18 ;
19 [label="entropy = 0.0\nsamples = 2\nvalue = [0, 2]"] ;
18 -> 19 ;
20 [label="entropy = 1.0\nsamples = 2\nvalue = [1, 1]"] ;
18 -> 20 ;
21 [label="entropy = 0.0\nsamples = 2\nvalue = [0, 2]"] ;
13 -> 21 ;
22 [label="entropy = 0.0\nsamples = 2\nvalue = [0, 2]"] ;
12 -> 22 ;
23 [label="entropy = 0.0\nsamples = 2\nvalue = [0, 2]"] ;
11 -> 23 ;
24 [label="entropy = 0.0\nsamples = 2\nvalue = [0, 2]"] ;
10 -> 24 ;
25 [label="('the', 'e') <= 1.5\nentropy = 0.592\nsamples = 7\nvalue = [1, 6]"] ;
9 -> 25 ;
26 [label="entropy = 0.0\nsamples = 5\nvalue = [0, 5]"] ;
25 -> 26 ;
27 [label="entropy = 1.0\nsamples = 2\nvalue = [1, 1]"] ;
25 -> 27 ;
28 [label="('this', 's') <= 0.5\nentropy = 0.433\nsamples = 45\nvalue = [41, 4]"] ;
8 -> 28 ;
29 [label="('the', 'e') <= 3.5\nentropy = 0.187\nsamples = 35\nvalue = [34, 1]"] ;
28 -> 29 ;
30 [label="entropy = 0.0\nsamples = 33\nvalue = [33, 0]"] ;
29 -> 30 ;
31 [label="entropy = 1.0\nsamples = 2\nvalue = [1, 1]"] ;
29 -> 31 ;
32 [label="('at', 't') <= 0.5\nentropy = 0.881\nsamples = 10\nvalue = [7, 3]"] ;
28 -> 32 ;
33 [label="('all', 'l') <= 0.5\nentropy = 0.544\nsamples = 8\nvalue = [7, 1]"] ;
32 -> 33 ;
34 [label="entropy = 0.0\nsamples = 6\nvalue = [6, 0]"] ;
33 -> 34 ;
35 [label="entropy = 1.0\nsamples = 2\nvalue = [1, 1]"] ;
33 -> 35 ;
36 [label="entropy = 0.0\nsamples = 2\nvalue = [0, 2]"] ;
32 -> 36 ;
37 [label="entropy = 0.0\nsamples = 2\nvalue = [0, 2]"] ;
7 -> 37 ;
38 [label="entropy = 0.0\nsamples = 2\nvalue = [0, 2]"] ;
6 -> 38 ;
39 [label="entropy = 0.0\nsamples = 3\nvalue = [0, 3]"] ;
5 -> 39 ;
40 [label="('https', 's') <= 0.5\nentropy = 0.845\nsamples = 11\nvalue = [3, 8]"] ;
4 -> 40 ;
41 [label="('or', 'r') <= 0.5\nentropy = 0.985\nsamples = 7\nvalue = [3, 4]"] ;
40 -> 41 ;
42 [label="('and', 'd') <= 0.5\nentropy = 0.971\nsamples = 5\nvalue = [3, 2]"] ;
41 -> 42 ;
43 [label="entropy = 0.0\nsamples = 3\nvalue = [3, 0]"] ;
42 -> 43 ;
44 [label="entropy = 0.0\nsamples = 2\nvalue = [0, 2]"] ;
42 -> 44 ;
45 [label="entropy = 0.0\nsamples = 2\nvalue = [0, 2]"] ;
41 -> 45 ;
46 [label="entropy = 0.0\nsamples = 4\nvalue = [0, 4]"] ;
40 -> 46 ;
47 [label="('from', 'm') <= 0.5\nentropy = 0.999\nsamples = 83\nvalue = [43, 40]"] ;
3 -> 47 ;
48 [label="('don', 'n') <= 0.5\nentropy = 0.992\nsamples = 78\nvalue = [43, 35]"] ;
47 -> 48 ;
49 [label="('this', 's') <= 0.5\nentropy = 0.981\nsamples = 74\nvalue = [43, 31]"] ;
48 -> 49 ;
50 [label="('what', 't') <= 0.5\nentropy = 1.0\nsamples = 54\nvalue = [27, 27]"] ;
49 -> 50 ;
51 [label="('5', '5') <= 0.5\nentropy = 0.989\nsamples = 48\nvalue = [27, 21]"] ;
50 -> 51 ;
52 [label="('their', 'r') <= 0.5\nentropy = 0.971\nsamples = 45\nvalue = [27, 18]"] ;
51 -> 52 ;
53 [label="('some', 'e') <= 0.5\nentropy = 0.989\nsamples = 41\nvalue = [23, 18]"] ;
52 -> 53 ;
54 [label="('when', 'n') <= 0.5\nentropy = 0.998\nsamples = 38\nvalue = [20, 18]"] ;
53 -> 54 ;
55 [label="('us', 's') <= 0.5\nentropy = 0.985\nsamples = 35\nvalue = [20, 15]"] ;
54 -> 55 ;
56 [label="('food', 'd') <= 0.5\nentropy = 0.997\nsamples = 32\nvalue = [17, 15]"] ;
55 -> 56 ;
57 [label="('an', 'n') <= 0.5\nentropy = 0.999\nsamples = 29\nvalue = [14, 15]"] ;
56 -> 57 ;
58 [label="('on', 'n') <= 0.5\nentropy = 0.996\nsamples = 26\nvalue = [14, 12]"] ;
57 -> 58 ;
59 [label="entropy = 0.994\nsamples = 22\nvalue = [10, 12]"] ;
58 -> 59 ;
60 [label="entropy = 0.0\nsamples = 4\nvalue = [4, 0]"] ;
58 -> 60 ;
61 [label="entropy = 0.0\nsamples = 3\nvalue = [0, 3]"] ;
57 -> 61 ;
62 [label="entropy = 0.0\nsamples = 3\nvalue = [3, 0]"] ;
56 -> 62 ;
63 [label="entropy = 0.0\nsamples = 3\nvalue = [3, 0]"] ;
55 -> 63 ;
64 [label="entropy = 0.0\nsamples = 3\nvalue = [0, 3]"] ;
54 -> 64 ;
65 [label="entropy = 0.0\nsamples = 3\nvalue = [3, 0]"] ;
53 -> 65 ;
66 [label="entropy = 0.0\nsamples = 4\nvalue = [4, 0]"] ;
52 -> 66 ;
67 [label="entropy = 0.0\nsamples = 3\nvalue = [0, 3]"] ;
51 -> 67 ;
68 [label="entropy = 0.0\nsamples = 6\nvalue = [0, 6]"] ;
50 -> 68 ;
69 [label="('before', 'e') <= 0.5\nentropy = 0.722\nsamples = 20\nvalue = [16, 4]"] ;
49 -> 69 ;
70 [label="('to', 'o') <= 0.5\nentropy = 0.503\nsamples = 18\nvalue = [16, 2]"] ;
69 -> 70 ;
71 [label="entropy = 0.0\nsamples = 12\nvalue = [12, 0]"] ;
70 -> 71 ;
72 [label="('s', 's') <= 1.5\nentropy = 0.918\nsamples = 6\nvalue = [4, 2]"] ;
70 -> 72 ;
73 [label="entropy = 0.918\nsamples = 3\nvalue = [1, 2]"] ;
72 -> 73 ;
74 [label="entropy = 0.0\nsamples = 3\nvalue = [3, 0]"] ;
72 -> 74 ;
75 [label="entropy = 0.0\nsamples = 2\nvalue = [0, 2]"] ;
69 -> 75 ;
76 [label="entropy = 0.0\nsamples = 4\nvalue = [0, 4]"] ;
48 -> 76 ;
77 [label="entropy = 0.0\nsamples = 5\nvalue = [0, 5]"] ;
47 -> 77 ;
78 [label="('rt', 't') <= 0.5\nentropy = 0.996\nsamples = 99\nvalue = [46, 53]"] ;
2 -> 78 ;
79 [label="('and', 'd') <= 0.5\nentropy = 0.845\nsamples = 22\nvalue = [16, 6]"] ;
78 -> 79 ;
80 [label="entropy = 0.0\nsamples = 14\nvalue = [14, 0]"] ;
79 -> 80 ;
81 [label="('have', 'e') <= 0.5\nentropy = 0.811\nsamples = 8\nvalue = [2, 6]"] ;
79 -> 81 ;
82 [label="entropy = 0.0\nsamples = 6\nvalue = [0, 6]"] ;
81 -> 82 ;
83 [label="entropy = 0.0\nsamples = 2\nvalue = [2, 0]"] ;
81 -> 83 ;
84 [label="('all', 'l') <= 0.5\nentropy = 0.965\nsamples = 77\nvalue = [30, 47]"] ;
78 -> 84 ;
85 [label="('report', 't') <= 0.5\nentropy = 0.983\nsamples = 71\nvalue = [30, 41]"] ;
84 -> 85 ;
86 [label="('no', 'o') <= 0.5\nentropy = 0.994\nsamples = 66\nvalue = [30, 36]"] ;
85 -> 86 ;
87 [label="('about', 't') <= 0.5\nentropy = 0.999\nsamples = 62\nvalue = [30, 32]"] ;
86 -> 87 ;
88 [label="('should', 'd') <= 0.5\nentropy = 0.995\nsamples = 59\nvalue = [27, 32]"] ;
87 -> 88 ;
89 [label="('they', 'y') <= 0.5\nentropy = 0.999\nsamples = 56\nvalue = [27, 29]"] ;
88 -> 89 ;
90 [label="('co', 'o') <= 0.5\nentropy = 1.0\nsamples = 53\nvalue = [27, 26]"] ;
89 -> 90 ;
91 [label="('you', 'u') <= 0.5\nentropy = 0.988\nsamples = 46\nvalue = [26, 20]"] ;
90 -> 91 ;
92 [label="('it', 't') <= 0.5\nentropy = 0.996\nsamples = 43\nvalue = [23, 20]"] ;
91 -> 92 ;
93 [label="('our', 'r') <= 0.5\nentropy = 0.998\nsamples = 36\nvalue = [17, 19]"] ;
92 -> 93 ;
94 [label="('an', 'n') <= 0.5\nentropy = 0.997\nsamples = 32\nvalue = [17, 15]"] ;
93 -> 94 ;
95 [label="('rising', 'g') <= 0.5\nentropy = 0.978\nsamples = 29\nvalue = [17, 12]"] ;
94 -> 95 ;
96 [label="entropy = 0.951\nsamples = 27\nvalue = [17, 10]"] ;
95 -> 96 ;
97 [label="entropy = 0.0\nsamples = 2\nvalue = [0, 2]"] ;
95 -> 97 ;
98 [label="entropy = 0.0\nsamples = 3\nvalue = [0, 3]"] ;
94 -> 98 ;
99 [label="entropy = 0.0\nsamples = 4\nvalue = [0, 4]"] ;
93 -> 99 ;
100 [label="('if', 'f') <= 0.5\nentropy = 0.592\nsamples = 7\nvalue = [6, 1]"] ;
92 -> 100 ;
101 [label="entropy = 0.0\nsamples = 5\nvalue = [5, 0]"] ;
100 -> 101 ;
102 [label="entropy = 1.0\nsamples = 2\nvalue = [1, 1]"] ;
100 -> 102 ;
103 [label="entropy = 0.0\nsamples = 3\nvalue = [3, 0]"] ;
91 -> 103 ;
104 [label="('it', 't') <= 0.5\nentropy = 0.592\nsamples = 7\nvalue = [1, 6]"] ;
90 -> 104 ;
105 [label="entropy = 0.0\nsamples = 5\nvalue = [0, 5]"] ;
104 -> 105 ;
106 [label="entropy = 1.0\nsamples = 2\nvalue = [1, 1]"] ;
104 -> 106 ;
107 [label="entropy = 0.0\nsamples = 3\nvalue = [0, 3]"] ;
89 -> 107 ;
108 [label="entropy = 0.0\nsamples = 3\nvalue = [0, 3]"] ;
88 -> 108 ;
109 [label="entropy = 0.0\nsamples = 3\nvalue = [3, 0]"] ;
87 -> 109 ;
110 [label="entropy = 0.0\nsamples = 4\nvalue = [0, 4]"] ;
86 -> 110 ;
111 [label="entropy = 0.0\nsamples = 5\nvalue = [0, 5]"] ;
85 -> 111 ;
112 [label="entropy = 0.0\nsamples = 6\nvalue = [0, 6]"] ;
84 -> 112 ;
113 [label="('take', 'e') <= 0.5\nentropy = 0.869\nsamples = 100\nvalue = [29, 71]"] ;
1 -> 113 ;
114 [label="('global', 'l') <= 0.5\nentropy = 0.839\nsamples = 97\nvalue = [26, 71]"] ;
113 -> 114 ;
115 [label="('aren', 'n') <= 0.5\nentropy = 0.794\nsamples = 92\nvalue = [22, 70]"] ;
114 -> 115 ;
116 [label="('taking', 'g') <= 0.5\nentropy = 0.764\nsamples = 90\nvalue = [20, 70]"] ;
115 -> 116 ;
117 [label="('a', 'a') <= 0.5\nentropy = 0.731\nsamples = 88\nvalue = [18, 70]"] ;
116 -> 117 ;
118 [label="('we', 'e') <= 0.5\nentropy = 0.847\nsamples = 62\nvalue = [17, 45]"] ;
117 -> 118 ;
119 [label="('co', 'o') <= 0.5\nentropy = 0.899\nsamples = 54\nvalue = [17, 37]"] ;
118 -> 119 ;
120 [label="('#wentw', 'w') <= 0.5\nentropy = 0.734\nsamples = 34\nvalue = [7, 27]"] ;
119 -> 120 ;
121 [label="('might', 't') <= 0.5\nentropy = 0.625\nsamples = 32\nvalue = [5, 27]"] ;
120 -> 121 ;
122 [label="('to', 'o') <= 0.5\nentropy = 0.469\nsamples = 30\nvalue = [3, 27]"] ;
121 -> 122 ;
123 [label="('but', 't') <= 0.5\nentropy = 0.672\nsamples = 17\nvalue = [3, 14]"] ;
122 -> 123 ;
124 [label="('rt', 't') <= 0.5\nentropy = 0.779\nsamples = 13\nvalue = [3, 10]"] ;
123 -> 124 ;
125 [label="entropy = 0.0\nsamples = 4\nvalue = [0, 4]"] ;
124 -> 125 ;
126 [label="('for', 'r') <= 0.5\nentropy = 0.918\nsamples = 9\nvalue = [3, 6]"] ;
124 -> 126 ;
127 [label="('of', 'f') <= 0.5\nentropy = 0.985\nsamples = 7\nvalue = [3, 4]"] ;
126 -> 127 ;
128 [label="entropy = 1.0\nsamples = 4\nvalue = [2, 2]"] ;
127 -> 128 ;
129 [label="entropy = 0.918\nsamples = 3\nvalue = [1, 2]"] ;
127 -> 129 ;
130 [label="entropy = 0.0\nsamples = 2\nvalue = [0, 2]"] ;
126 -> 130 ;
131 [label="entropy = 0.0\nsamples = 4\nvalue = [0, 4]"] ;
123 -> 131 ;
132 [label="entropy = 0.0\nsamples = 13\nvalue = [0, 13]"] ;
122 -> 132 ;
133 [label="entropy = 0.0\nsamples = 2\nvalue = [2, 0]"] ;
121 -> 133 ;
134 [label="entropy = 0.0\nsamples = 2\nvalue = [2, 0]"] ;
120 -> 134 ;
135 [label="('in', 'n') <= 0.5\nentropy = 1.0\nsamples = 20\nvalue = [10, 10]"] ;
119 -> 135 ;
136 [label="('how', 'w') <= 0.5\nentropy = 0.991\nsamples = 18\nvalue = [8, 10]"] ;
135 -> 136 ;
137 [label="('but', 't') <= 0.5\nentropy = 0.954\nsamples = 16\nvalue = [6, 10]"] ;
136 -> 137 ;
138 [label="('10', '0') <= 0.5\nentropy = 0.985\nsamples = 14\nvalue = [6, 8]"] ;
137 -> 138 ;
139 [label="('is', 's') <= 0.5\nentropy = 1.0\nsamples = 12\nvalue = [6, 6]"] ;
138 -> 139 ;
140 [label="('and', 'd') <= 0.5\nentropy = 0.971\nsamples = 10\nvalue = [6, 4]"] ;
139 -> 140 ;
141 [label="('rt', 't') <= 0.5\nentropy = 1.0\nsamples = 8\nvalue = [4, 4]"] ;
140 -> 141 ;
142 [label="entropy = 0.811\nsamples = 4\nvalue = [3, 1]"] ;
141 -> 142 ;
143 [label="entropy = 0.811\nsamples = 4\nvalue = [1, 3]"] ;
141 -> 143 ;
144 [label="entropy = 0.0\nsamples = 2\nvalue = [2, 0]"] ;
140 -> 144 ;
145 [label="entropy = 0.0\nsamples = 2\nvalue = [0, 2]"] ;
139 -> 145 ;
146 [label="entropy = 0.0\nsamples = 2\nvalue = [0, 2]"] ;
138 -> 146 ;
147 [label="entropy = 0.0\nsamples = 2\nvalue = [0, 2]"] ;
137 -> 147 ;
148 [label="entropy = 0.0\nsamples = 2\nvalue = [2, 0]"] ;
136 -> 148 ;
149 [label="entropy = 0.0\nsamples = 2\nvalue = [2, 0]"] ;
135 -> 149 ;
150 [label="entropy = 0.0\nsamples = 8\nvalue = [0, 8]"] ;
118 -> 150 ;
151 [label="('media', 'a') <= 0.5\nentropy = 0.235\nsamples = 26\nvalue = [1, 25]"] ;
117 -> 151 ;
152 [label="entropy = 0.0\nsamples = 24\nvalue = [0, 24]"] ;
151 -> 152 ;
153 [label="entropy = 1.0\nsamples = 2\nvalue = [1, 1]"] ;
151 -> 153 ;
154 [label="entropy = 0.0\nsamples = 2\nvalue = [2, 0]"] ;
116 -> 154 ;
155 [label="entropy = 0.0\nsamples = 2\nvalue = [2, 0]"] ;
115 -> 155 ;
156 [label="('in', 'n') <= 0.5\nentropy = 0.722\nsamples = 5\nvalue = [4, 1]"] ;
114 -> 156 ;
157 [label="entropy = 0.0\nsamples = 3\nvalue = [3, 0]"] ;
156 -> 157 ;
158 [label="entropy = 1.0\nsamples = 2\nvalue = [1, 1]"] ;
156 -> 158 ;
159 [label="entropy = 0.0\nsamples = 3\nvalue = [3, 0]"] ;
113 -> 159 ;
160 [label="('rt', 't') <= 0.5\nentropy = 0.918\nsamples = 525\nvalue = [175, 350]"] ;
0 -> 160 [labeldistance=2.5, labelangle=-45, headlabel="False"] ;
161 [label="('into', 'o') <= 0.5\nentropy = 0.983\nsamples = 267\nvalue = [113, 154]"] ;
160 -> 161 ;
162 [label="('know', 'w') <= 0.5\nentropy = 0.99\nsamples = 256\nvalue = [113, 143]"] ;
161 -> 162 ;
163 [label="('changing', 'g') <= 0.5\nentropy = 0.994\nsamples = 249\nvalue = [113, 136]"] ;
162 -> 163 ;
164 [label="('t', 't') <= 1.5\nentropy = 0.99\nsamples = 244\nvalue = [108, 136]"] ;
163 -> 164 ;
165 [label="('it', 't') <= 1.5\nentropy = 0.997\nsamples = 219\nvalue = [103, 116]"] ;
164 -> 165 ;
166 [label="('year', 'r') <= 0.5\nentropy = 0.994\nsamples = 213\nvalue = [97, 116]"] ;
165 -> 166 ;
167 [label="('down', 'n') <= 0.5\nentropy = 0.997\nsamples = 207\nvalue = [97, 110]"] ;
166 -> 167 ;
168 [label="('of', 'f') <= 0.5\nentropy = 0.999\nsamples = 202\nvalue = [97, 105]"] ;
167 -> 168 ;
169 [label="('years', 's') <= 0.5\nentropy = 0.981\nsamples = 141\nvalue = [59, 82]"] ;
168 -> 169 ;
170 [label="('by', 'y') <= 0.5\nentropy = 0.987\nsamples = 136\nvalue = [59, 77]"] ;
169 -> 170 ;
171 [label="('going', 'g') <= 0.5\nentropy = 0.995\nsamples = 126\nvalue = [58, 68]"] ;
170 -> 171 ;
172 [label="('ipcc', 'c') <= 0.5\nentropy = 0.992\nsamples = 123\nvalue = [55, 68]"] ;
171 -> 172 ;
173 [label="('also', 'o') <= 0.5\nentropy = 0.987\nsamples = 120\nvalue = [52, 68]"] ;
172 -> 173 ;
174 [label="('just', 't') <= 0.5\nentropy = 0.981\nsamples = 117\nvalue = [49, 68]"] ;
173 -> 174 ;
175 [label="entropy = 0.987\nsamples = 113\nvalue = [49, 64]"] ;
174 -> 175 ;
176 [label="entropy = 0.0\nsamples = 4\nvalue = [0, 4]"] ;
174 -> 176 ;
177 [label="entropy = 0.0\nsamples = 3\nvalue = [3, 0]"] ;
173 -> 177 ;
178 [label="entropy = 0.0\nsamples = 3\nvalue = [3, 0]"] ;
172 -> 178 ;
179 [label="entropy = 0.0\nsamples = 3\nvalue = [3, 0]"] ;
171 -> 179 ;
180 [label="('chinese', 'e') <= 0.5\nentropy = 0.469\nsamples = 10\nvalue = [1, 9]"] ;
170 -> 180 ;
181 [label="entropy = 0.0\nsamples = 8\nvalue = [0, 8]"] ;
180 -> 181 ;
182 [label="entropy = 1.0\nsamples = 2\nvalue = [1, 1]"] ;
180 -> 182 ;
183 [label="entropy = 0.0\nsamples = 5\nvalue = [0, 5]"] ;
169 -> 183 ;
184 [label="('the', 'e') <= 3.5\nentropy = 0.956\nsamples = 61\nvalue = [38, 23]"] ;
168 -> 184 ;
185 [label="('may', 'y') <= 0.5\nentropy = 0.918\nsamples = 57\nvalue = [38, 19]"] ;
184 -> 185 ;
186 [label="('as', 's') <= 0.5\nentropy = 0.877\nsamples = 54\nvalue = [38, 16]"] ;
185 -> 186 ;
187 [label="('if', 'f') <= 0.5\nentropy = 0.925\nsamples = 47\nvalue = [31, 16]"] ;
186 -> 187 ;
188 [label="('this', 's') <= 0.5\nentropy = 0.876\nsamples = 44\nvalue = [31, 13]"] ;
187 -> 188 ;
189 [label="('that', 't') <= 0.5\nentropy = 0.952\nsamples = 35\nvalue = [22, 13]"] ;
188 -> 189 ;
190 [label="entropy = 0.84\nsamples = 26\nvalue = [19, 7]"] ;
189 -> 190 ;
191 [label="entropy = 0.918\nsamples = 9\nvalue = [3, 6]"] ;
189 -> 191 ;
192 [label="entropy = 0.0\nsamples = 9\nvalue = [9, 0]"] ;
188 -> 192 ;
193 [label="entropy = 0.0\nsamples = 3\nvalue = [0, 3]"] ;
187 -> 193 ;
194 [label="entropy = 0.0\nsamples = 7\nvalue = [7, 0]"] ;
186 -> 194 ;
195 [label="entropy = 0.0\nsamples = 3\nvalue = [0, 3]"] ;
185 -> 195 ;
196 [label="entropy = 0.0\nsamples = 4\nvalue = [0, 4]"] ;
184 -> 196 ;
197 [label="entropy = 0.0\nsamples = 5\nvalue = [0, 5]"] ;
167 -> 197 ;
198 [label="entropy = 0.0\nsamples = 6\nvalue = [0, 6]"] ;
166 -> 198 ;
199 [label="entropy = 0.0\nsamples = 6\nvalue = [6, 0]"] ;
165 -> 199 ;
200 [label="('to', 'o') <= 0.5\nentropy = 0.722\nsamples = 25\nvalue = [5, 20]"] ;
164 -> 200 ;
201 [label="('not', 't') <= 0.5\nentropy = 0.918\nsamples = 15\nvalue = [5, 10]"] ;
200 -> 201 ;
202 [label="('and', 'd') <= 0.5\nentropy = 0.779\nsamples = 13\nvalue = [3, 10]"] ;
201 -> 202 ;
203 [label="('on', 'n') <= 0.5\nentropy = 0.985\nsamples = 7\nvalue = [3, 4]"] ;
202 -> 203 ;
204 [label="('what', 't') <= 0.5\nentropy = 0.971\nsamples = 5\nvalue = [3, 2]"] ;
203 -> 204 ;
205 [label="entropy = 0.918\nsamples = 3\nvalue = [2, 1]"] ;
204 -> 205 ;
206 [label="entropy = 1.0\nsamples = 2\nvalue = [1, 1]"] ;
204 -> 206 ;
207 [label="entropy = 0.0\nsamples = 2\nvalue = [0, 2]"] ;
203 -> 207 ;
208 [label="entropy = 0.0\nsamples = 6\nvalue = [0, 6]"] ;
202 -> 208 ;
209 [label="entropy = 0.0\nsamples = 2\nvalue = [2, 0]"] ;
201 -> 209 ;
210 [label="entropy = 0.0\nsamples = 10\nvalue = [0, 10]"] ;
200 -> 210 ;
211 [label="entropy = 0.0\nsamples = 5\nvalue = [5, 0]"] ;
163 -> 211 ;
212 [label="entropy = 0.0\nsamples = 7\nvalue = [0, 7]"] ;
162 -> 212 ;
213 [label="entropy = 0.0\nsamples = 11\nvalue = [0, 11]"] ;
161 -> 213 ;
214 [label="('question', 'n') <= 0.5\nentropy = 0.796\nsamples = 258\nvalue = [62, 196]"] ;
160 -> 214 ;
215 [label="('un', 'n') <= 0.5\nentropy = 0.78\nsamples = 255\nvalue = [59, 196]"] ;
214 -> 215 ;
216 [label="('them', 'm') <= 0.5\nentropy = 0.808\nsamples = 238\nvalue = [59, 179]"] ;
215 -> 216 ;
217 [label="('your', 'r') <= 0.5\nentropy = 0.792\nsamples = 235\nvalue = [56, 179]"] ;
216 -> 217 ;
218 [label="('@tan123', '3') <= 0.5\nentropy = 0.764\nsamples = 225\nvalue = [50, 175]"] ;
217 -> 218 ;
219 [label="('god', 'd') <= 0.5\nentropy = 0.751\nsamples = 223\nvalue = [48, 175]"] ;
218 -> 219 ;
220 [label="('water', 'r') <= 0.5\nentropy = 0.738\nsamples = 221\nvalue = [46, 175]"] ;
219 -> 220 ;
221 [label="('some', 'e') <= 0.5\nentropy = 0.724\nsamples = 219\nvalue = [44, 175]"] ;
220 -> 221 ;
222 [label="('as', 's') <= 1.5\nentropy = 0.709\nsamples = 217\nvalue = [42, 175]"] ;
221 -> 222 ;
223 [label="('about', 't') <= 0.5\nentropy = 0.693\nsamples = 215\nvalue = [40, 175]"] ;
222 -> 223 ;
224 [label="('@davesharma', 'a') <= 0.5\nentropy = 0.734\nsamples = 189\nvalue = [39, 150]"] ;
223 -> 224 ;
225 [label="('been', 'n') <= 0.5\nentropy = 0.718\nsamples = 187\nvalue = [37, 150]"] ;
224 -> 225 ;
226 [label="('let', 't') <= 0.5\nentropy = 0.693\nsamples = 183\nvalue = [34, 149]"] ;
225 -> 226 ;
227 [label="('for', 'r') <= 1.5\nentropy = 0.665\nsamples = 179\nvalue = [31, 148]"] ;
226 -> 227 ;
228 [label="entropy = 0.637\nsamples = 174\nvalue = [28, 146]"] ;
227 -> 228 ;
229 [label="entropy = 0.971\nsamples = 5\nvalue = [3, 2]"] ;
227 -> 229 ;
230 [label="('now', 'w') <= 0.5\nentropy = 0.811\nsamples = 4\nvalue = [3, 1]"] ;
226 -> 230 ;
231 [label="entropy = 0.0\nsamples = 2\nvalue = [2, 0]"] ;
230 -> 231 ;
232 [label="entropy = 1.0\nsamples = 2\nvalue = [1, 1]"] ;
230 -> 232 ;
233 [label="('of', 'f') <= 0.5\nentropy = 0.811\nsamples = 4\nvalue = [3, 1]"] ;
225 -> 233 ;
234 [label="entropy = 0.0\nsamples = 2\nvalue = [2, 0]"] ;
233 -> 234 ;
235 [label="entropy = 1.0\nsamples = 2\nvalue = [1, 1]"] ;
233 -> 235 ;
236 [label="entropy = 0.0\nsamples = 2\nvalue = [2, 0]"] ;
224 -> 236 ;
237 [label="('says', 's') <= 0.5\nentropy = 0.235\nsamples = 26\nvalue = [1, 25]"] ;
223 -> 237 ;
238 [label="entropy = 0.0\nsamples = 24\nvalue = [0, 24]"] ;
237 -> 238 ;
239 [label="entropy = 1.0\nsamples = 2\nvalue = [1, 1]"] ;
237 -> 239 ;
240 [label="entropy = 0.0\nsamples = 2\nvalue = [2, 0]"] ;
222 -> 240 ;
241 [label="entropy = 0.0\nsamples = 2\nvalue = [2, 0]"] ;
221 -> 241 ;
242 [label="entropy = 0.0\nsamples = 2\nvalue = [2, 0]"] ;
220 -> 242 ;
243 [label="entropy = 0.0\nsamples = 2\nvalue = [2, 0]"] ;
219 -> 243 ;
244 [label="entropy = 0.0\nsamples = 2\nvalue = [2, 0]"] ;
218 -> 244 ;
245 [label="('the', 'e') <= 1.5\nentropy = 0.971\nsamples = 10\nvalue = [6, 4]"] ;
217 -> 245 ;
246 [label="('in', 'n') <= 0.5\nentropy = 1.0\nsamples = 8\nvalue = [4, 4]"] ;
245 -> 246 ;
247 [label="('by', 'y') <= 0.5\nentropy = 0.918\nsamples = 6\nvalue = [4, 2]"] ;
246 -> 247 ;
248 [label="entropy = 0.0\nsamples = 2\nvalue = [2, 0]"] ;
247 -> 248 ;
249 [label="('swap', 'p') <= 0.5\nentropy = 1.0\nsamples = 4\nvalue = [2, 2]"] ;
247 -> 249 ;
250 [label="entropy = 1.0\nsamples = 2\nvalue = [1, 1]"] ;
249 -> 250 ;
251 [label="entropy = 1.0\nsamples = 2\nvalue = [1, 1]"] ;
249 -> 251 ;
252 [label="entropy = 0.0\nsamples = 2\nvalue = [0, 2]"] ;
246 -> 252 ;
253 [label="entropy = 0.0\nsamples = 2\nvalue = [2, 0]"] ;
245 -> 253 ;
254 [label="entropy = 0.0\nsamples = 3\nvalue = [3, 0]"] ;
216 -> 254 ;
255 [label="entropy = 0.0\nsamples = 17\nvalue = [0, 17]"] ;
215 -> 255 ;
256 [label="entropy = 0.0\nsamples = 3\nvalue = [3, 0]"] ;
214 -> 256 ;
}
